layers 11
layer 0 Conv2D
5 5 1 8 same
0.2038639,-0.103684,-0.06068709,-0.05818352,0.07292911,0.17782775,0.10035747,-0.11124039,-0.28532425,0.04700435,0.031856675,0.4175557,0.3516016,-0.43276078,-0.2631164,-0.48656726,0.112820074,0.76122326,0.20239322,-0.38752535,-0.011839083,-0.62691325,0.04279616,0.42814267,-0.12087499,
0.07952683
-0.05012623,-0.041929957,-0.12315162,-0.1408509,0.1871864,-0.08679341,-0.32463586,-0.14720641,0.0063263127,0.20166531,0.30895412,0.46794453,0.59163105,0.34217954,0.046816096,0.32138687,0.45738447,0.25547916,-0.16082636,-0.2477964,-0.51469564,-0.5648195,-0.5122564,-0.21595547,0.12267828,
-0.39076966
0.5706168,0.27982607,-0.10227747,-0.4378819,0.14177889,0.32955787,0.21343389,-0.28779054,-0.14118816,0.32292667,0.27582508,-0.11603514,-0.091281414,0.46465313,0.30404782,-0.20289224,-0.42685208,0.22997744,0.50440305,-0.015208076,-0.49508628,-0.4405957,0.021252587,-0.039624978,-0.20949052,
0.019234126
-0.022104878,-0.26145175,0.035402436,0.15218425,0.124554165,-0.12480947,-0.27482963,0.48752525,0.10040986,-0.18614763,-0.25459892,0.25663874,0.6534271,-0.19769734,-0.2256787,-0.0043288236,0.567728,0.12974559,-0.6689491,-0.17674197,0.29885292,-0.035871428,-0.32365042,-0.3896608,0.4354476,
-0.16090152
0.19161907,-0.043649822,-0.056088153,0.12212115,0.090036534,0.14588079,0.27539626,0.12405822,-0.12909119,-0.42217577,0.3341945,0.15842308,-0.020264467,0.08734453,-0.73454356,0.31388324,0.10701618,-0.43672165,-0.5937208,-0.6008093,-0.17414728,-0.45697728,-0.54466647,-0.38112807,0.35509172,
-0.022807661
0.54344594,-0.13842775,-0.2306321,-0.2079536,-0.021091396,0.52844274,-0.186971,-0.30272996,-0.23634882,-0.23912242,0.7232926,-0.05371373,-0.032021526,-0.020450464,-0.32498124,0.5081051,0.0804483,-0.0777502,-0.17990275,-0.4271911,0.46882185,0.3328239,0.09735285,-0.26807803,-0.05498873,
-0.15848958
-0.2602635,-0.18827187,0.08519086,0.23577067,-0.0036021639,-0.16923589,-0.29624906,0.30570284,0.11815597,0.16816446,-0.41168925,-0.38725856,0.059557136,0.28365347,0.40091372,-0.2725577,-0.6423899,0.017791836,0.3331527,0.44116786,-0.0687073,-0.48742142,0.052230522,0.5622077,0.08473316,
-0.14927167
-0.38651502,-0.73207307,-0.55948013,-0.09458311,0.4340971,0.30500177,0.24096566,-0.05511502,-0.5808526,-0.46251473,-0.09600017,0.3673411,0.4452772,0.3159804,-0.045023542,0.0057362546,-0.087168194,0.17153588,0.107043795,0.12227655,0.0700951,0.18174887,0.1311893,0.04537795,0.3054024,
0.15567987
layer 1 BatchNormalization
1.1175389,-0.36551213,0.017663874,0.61547184
0.97124404,-0.3269187,-0.35970238,1.6468495
0.8651832,-0.32742828,0.14470196,1.5141119
1.0112203,-0.2760902,-0.1943664,0.74655384
0.87969893,0.035682186,-0.16552018,5.373823
1.4322081,-0.17073287,-0.22458324,4.165564
1.3130335,0.0282026,-0.07271076,4.292258
0.7906144,0.061061054,0.05867692,1.6918399
layer 2 Activation
relu
layer 3 MaxPooling2D
2 2 valid
layer 4 Conv2D
5 5 8 16 same
0.05770802,0.013174151,0.17632362,0.12523623,0.2687002,0.50492615,-0.20872313,0.09129078,0.37941605,0.12796527,-0.18457387,-0.38837627,-0.20283456,0.34593332,0.14407526,-0.19882424,-0.50068873,-0.3207332,-0.15361758,-0.34981665,-0.41462132,-1.0536829,-0.49862435,-0.59789884,-0.24062514,
-0.16297126,0.078447014,-0.0039986046,0.0033399332,0.076385796,-0.040316485,0.11215737,0.16231106,0.18987931,-0.36167365,0.54256606,0.16123919,-0.20067145,0.1735278,-0.20315897,0.26741716,0.09317107,-0.57444906,-0.17687787,0.4440497,0.008258576,-0.18669654,-0.34710118,0.12729956,0.2430782,
-7.5309217e-06,-0.39210993,0.16403343,0.08185498,-0.03563948,0.33639434,0.0016657686,-0.25771067,0.047070872,-0.083846,0.31178954,0.1534095,-0.2639897,0.19868611,0.30068034,-0.47957185,-0.09298885,0.021084286,0.3330129,0.18802227,-0.21539326,0.29829833,0.5581441,-0.1811495,-0.010152903,
0.36898342,0.39322215,-0.049674112,0.032966275,-0.08592595,0.20247437,0.26116058,-0.1836469,-0.16755992,-0.29348052,-0.4216877,-0.3145745,0.24063525,0.2609814,0.27658463,-0.048223455,0.11838249,0.56456727,0.55109286,0.5564681,0.102009654,0.41899055,0.11093161,0.2822477,0.2793165,
-0.16987604,0.035614654,0.013889445,-0.22932835,-0.45608157,-0.5992705,-0.21836963,0.14367202,-0.07349004,0.04128792,-0.56573707,-0.43902373,-0.14614664,-0.02647769,0.3300144,0.30756506,-0.22210605,0.13232921,0.3440899,-0.15625812,0.37426308,-0.13566884,0.64934856,0.08392264,-0.7190006,
0.11913478,-0.047888428,-0.17828985,-0.5509497,-0.02175437,-0.10454151,-0.120893426,-0.0590378,-0.30826813,-0.02932081,0.14854184,0.3069377,-0.022833416,-0.03448467,0.015634611,0.30277073,0.9475908,0.31252497,0.14426479,0.2201539,-0.35949284,-0.21054,-0.39835066,-0.44605017,0.047980983,
0.17185082,-0.07531163,-0.49877697,-0.07268972,-0.28522807,0.027323186,-0.0016526587,-1.2056141,-0.8839671,-0.10221873,-0.33551848,-0.111039884,-0.3731216,0.18762043,0.28122467,-0.06619042,0.29034612,0.30547318,0.031422954,-0.14976296,-0.02214316,0.2674691,-0.033532836,-0.6872817,-0.61602694,
-0.28085017,-0.026177695,0.21432866,-0.033582255,-0.22081372,-0.119639635,-0.10628621,0.39778835,0.36664277,0.14801201,0.41864458,-0.37083513,-0.020260125,0.02941169,0.10580227,0.19159928,-0.5298067,0.15905735,-0.0389118,0.30048737,0.008029818,-0.3872186,-0.08223293,-0.34563336,0.1522726,
-0.08840663
-0.7214818,-0.54789215,-0.27424294,-0.040150452,-0.14034435,-0.721318,-0.25412944,-0.03607257,0.11774427,-0.20303752,0.07356965,0.35540852,0.3050873,0.3372607,0.020459592,0.50164104,0.32141975,-0.09005984,-0.010876207,-0.029642375,-0.19077963,0.019406646,-0.27364212,-0.030972904,0.07276056,
0.3044462,0.093849935,0.014366195,-0.12479003,-0.17141978,-0.30014837,-0.20785868,0.22288793,0.31748658,0.14695568,-0.8433603,-0.25976214,0.33578557,0.51842135,0.1829614,-0.035241175,-0.05270228,0.38949257,0.34284088,0.22185916,0.3167722,0.15227404,0.24642704,0.27665362,0.515348,
-0.17287923,0.0074682035,0.08758651,0.084467985,-0.00574705,-0.13846497,-0.047434833,-0.13231254,0.5438419,0.34080863,0.33283606,0.78313625,-0.12927641,0.26865783,0.32884482,0.5350935,0.585817,-0.29992995,-0.29342684,-0.8003829,0.08765394,-0.14834632,-0.009041289,-0.81892467,-0.23456398,
0.10832102,0.049922463,0.04050707,0.050951023,0.04094438,0.24405895,0.45011777,-0.0032531319,-0.07127815,0.05907628,0.2606656,0.32336292,0.15447955,-0.14599857,0.0441899,-0.032150086,-0.17391145,-0.14279203,-0.15056881,-0.029453699,-0.22453384,0.0052836537,-0.23577945,0.10829963,0.17024352,
0.1973109,0.081379816,-0.3581871,-0.1487928,0.093046434,0.38976008,0.20233348,-0.31767178,-0.19140074,0.07231657,-0.11985196,-0.028165825,-0.337878,-0.11070194,-0.11517005,-0.13999876,-0.04580857,-0.77025354,0.4591784,-0.06314372,0.057417996,-0.32945463,-0.58729076,0.027163614,-0.24886024,
0.32096216,0.40491247,-0.12782824,-0.1227675,0.26376852,-0.17242275,0.32401848,0.25608224,0.27414498,0.028273866,0.034441177,0.1146316,0.4133111,-0.10590231,0.1490371,0.44494227,-0.035402417,-0.73769367,-1.125402,-0.10652819,-0.124698095,-0.07108016,-0.668508,-0.18861744,0.15753771,
-0.26569948,-0.045399774,-0.021575011,0.22828248,0.4050617,0.22389829,0.5633907,-0.24562079,-0.26774922,-0.18679017,0.41980076,-0.22895855,-0.57521194,0.2917783,0.0689906,-0.058444347,-0.8234499,-0.8031813,0.08515179,0.2032627,-0.34717682,-0.042419825,-0.2532718,-0.37008736,-0.8595058,
-0.27418464,0.04315705,0.1631274,-0.045455206,-0.0033768797,-0.28107533,-0.108333685,0.018283077,-0.15845476,-0.3059311,-0.23579721,0.00082682807,0.14281523,-0.121868365,-0.31097025,-0.10394874,0.18631111,-0.023798341,-0.2912638,-0.48596707,0.6307439,0.27552804,-0.17426136,-0.3671565,-0.068434656,
0.060666364
0.05014266,-0.29965308,0.102697834,0.43631843,0.3395093,-0.050948936,0.008917062,0.108301334,0.34281576,-0.15446343,0.011592373,0.118185505,0.051552653,-0.1316924,0.002949353,0.24543293,-0.059354566,-0.46930134,0.42554927,0.18376969,0.443029,-0.0491696,0.062176205,0.20919631,-0.18209778,
0.046016783,-0.09190202,-0.0193134,-0.2593636,-0.25699872,0.17214654,-0.18622567,0.23833705,-0.7189381,-0.1769261,-0.13997073,0.10658096,0.37763447,-0.27236122,-0.2157864,-0.8354467,0.17421578,0.17650484,-0.1607609,0.3104836,-0.3530283,-0.16449055,-0.18681091,-0.19495946,0.3203701,
-0.06261684,-0.069094196,0.023381365,0.19610265,0.15137863,0.20692442,-0.25931787,-0.47334015,0.28835675,-0.11747618,-0.20980616,-0.4001313,-0.32116792,0.22956087,-0.36744487,0.15832326,0.10941043,-0.20813678,-0.24434209,0.4665095,0.32584098,0.2552818,-0.08313046,0.13036332,0.2603654,
0.014815457,0.23072508,-0.36089048,0.3178137,0.07757284,0.28252745,0.17681366,0.053690407,0.63957757,0.43813232,-0.12982601,0.014420975,0.16930409,0.20287612,0.21067822,-0.10501419,-0.045616765,-0.10374718,-0.20277229,-0.30406874,-0.04108021,-0.34013185,-0.011961339,0.038030207,0.10258073,
0.21777329,-0.28197277,-0.68293947,-0.0030347342,-0.23137176,-0.0001416697,-0.10669091,0.156046,0.14346713,-0.25892663,0.1696704,0.1325667,-0.26699683,-0.6809215,-0.17315085,0.39241913,0.42650467,0.13724987,-0.6024695,0.13674544,-0.13426274,0.48925388,0.18541352,-0.12084673,0.23416008,
-0.1491661,-0.46618265,0.043173134,-0.10476479,-0.058809396,0.1252512,-0.26569572,-0.32754895,-0.42626035,0.15226276,0.28689286,0.40856975,0.31547987,-0.07483583,0.2666093,-0.036587883,0.35597843,1.0542624,0.047597706,-0.29196042,0.6228398,0.30629662,0.11278662,-0.7303914,-0.33888185,
0.053393226,-0.262807,-0.66103995,-0.07132414,-0.042573743,-0.13258679,-0.53781253,-0.05899433,0.39429763,-0.15082881,-0.040424097,0.513417,0.5209225,0.15108387,-0.11283295,0.023534082,0.44278726,0.37517115,-0.18744108,-0.32255548,-0.2608181,-0.34297046,-0.4349141,-0.0329532,0.037983682,
0.014150286,0.18575475,-0.05106107,-0.006286092,0.27468792,-0.2706193,-0.051596552,0.28202766,0.1323769,0.22945656,-0.3869499,-0.25272167,0.025728578,-0.9143619,-0.6762806,-0.22756353,-0.8580105,-0.79137343,-0.84583974,-0.6248935,0.08740946,-0.26963946,-0.11988616,0.09963002,0.29802504,
0.024110336
0.04387341,0.24924728,0.24385752,0.23488274,-0.34078175,-0.17642578,0.31838393,0.44510463,-0.26847306,0.14150845,0.1670449,0.180587,0.28028974,-0.008911787,-0.025731416,-0.06617909,-0.29258627,-0.016362697,0.38949957,0.116433464,-0.07954849,-0.34197283,0.025128784,0.47282195,0.28569973,
0.10659784,0.016806128,0.2208635,-0.34761187,-0.54685915,0.3299873,-0.19928944,0.10054227,0.0632957,-0.25248203,-0.07491389,-0.29336733,0.24971104,0.4769335,0.39314958,-0.7184156,-0.06212737,0.20746453,0.13930604,0.3685696,-0.23169817,0.0773132,0.13846414,0.084466085,-0.10545685,
-0.059871804,-0.13841508,-0.08945528,0.38970196,-0.20652959,0.3652933,0.18685238,-0.028803684,-0.055945527,-0.27010646,0.4569006,-0.036414735,0.0671777,0.28305948,0.21935582,0.44693714,-0.019404195,-0.54844314,-0.1730894,-0.12112504,0.06985243,0.40535158,0.28863955,0.07971843,0.09273546,
-0.024209011,0.047195423,0.21364653,0.34326982,0.14206252,-0.2891912,-0.2768147,-0.40076527,-0.067487486,0.073525846,0.59333116,0.39567062,-0.53711724,-1.0833949,-0.34924248,0.32125893,0.4640588,0.092553094,-0.64747196,-0.62753457,-0.48142105,-0.37702635,0.10797813,-0.12168087,-0.6320802,
-0.062224258,-0.33649734,-0.20036809,0.09824736,0.05183445,0.16696912,-0.10136396,-0.030778209,-0.10066033,-0.24359754,-0.030595034,0.062474463,0.2310719,0.21762459,0.49531633,-0.39601773,-0.2266556,0.003956908,-0.27883378,0.07014939,-0.71110904,-0.010089578,0.05255042,-0.1372358,-0.2892602,
0.124286056,0.045404904,-0.22518843,0.113907605,0.0870091,-0.13670488,-0.26791674,-0.30046058,-0.24930416,0.2890716,0.13745241,0.02262239,-0.11429525,0.11109969,0.40395385,0.53144705,-0.052729104,-0.4119433,-1.1432438,-0.3842197,0.15846606,0.56415296,0.37826982,-0.5038528,-0.08431861,
-0.040300686,0.24427806,0.115702115,0.3127388,-0.024774259,-0.07496854,-0.27832723,0.36875847,0.13837124,0.31442782,0.29917958,0.102161355,0.15543741,0.23210101,0.40767992,-0.15422122,-0.29327607,-0.41303787,-0.2641257,-1.4066104,0.032022133,-0.039466072,-0.105552375,-0.38951424,-0.20015524,
-0.11080126,0.15870239,-0.110704996,-0.29254246,-0.15938413,0.04512011,0.31529164,0.24844621,-0.20955236,-0.69888014,0.13026452,-0.042486623,-0.082628615,-0.17115638,-0.73520243,-0.35832408,-0.57303417,-0.008456187,0.09913879,0.07269991,-0.07353592,-0.33734283,-0.20333123,0.13012634,0.123252384,
0.08907432
-0.1798629,-0.5155192,0.08351115,0.18489139,0.223662,-0.27737746,-0.38757825,0.053762782,-0.13978538,-0.10263359,0.41866246,0.2883017,-0.11606787,-0.5655265,-0.20909601,0.26010597,0.2686475,-0.4100774,-0.439307,-0.18420391,0.1921219,-0.010127252,0.22339793,-0.33474132,-0.118647344,
0.18462802,0.08343285,-0.32534537,-0.687464,0.04826624,0.24083638,0.1435446,-0.3285948,-1.4832923,-0.42821315,0.13282397,0.1558137,0.13701141,-0.40170047,0.209943,0.070803784,-0.094214715,0.5771164,0.40837675,0.09010337,0.17133063,-0.58640814,-0.051926903,0.15776545,0.02194201,
0.0801367,-0.11442637,-0.21270582,-0.26297465,0.14911403,-0.16606428,0.065511435,-0.0078793,0.13598788,-0.0305663,-0.26982266,0.13802135,0.13721989,0.4144262,0.35874277,-0.06267764,-0.22281452,0.0119915465,0.080265254,0.3673158,0.30456454,-0.18962453,-0.24506678,0.5845286,0.15446573,
-0.1446322,-0.7228519,-0.584727,-0.19776218,-0.029126232,-0.36779648,-0.43632072,-0.082693085,0.22111236,0.08501611,-0.21077028,-0.36715856,0.31247705,0.6255316,0.3581354,0.12159294,-0.28855506,0.07957083,0.59386724,0.55148387,-0.015193347,-0.21133958,-0.31652763,0.14992794,0.40587065,
-0.14763059,-0.08927087,-0.3446955,-0.39389688,-0.122004814,-0.037740614,0.53686976,0.015001805,0.00785171,-0.05461335,-0.22062968,0.580336,0.2731095,0.3501498,0.29465345,-0.665085,-0.26618367,0.0035097902,-0.29420236,0.085283265,-0.3296568,0.09992128,0.12154299,-0.052110583,0.2706797,
-0.34158918,-0.15889047,0.32116142,-0.032988682,-0.12347217,-0.09650567,0.01985018,0.22543934,0.29203507,-0.22944424,0.36435285,0.21090807,0.25222087,0.35375035,0.10076483,0.27783704,-0.20976616,-0.39205542,-0.25436375,-0.2756655,0.5293261,-0.10711022,-0.12029532,-0.5141932,-0.64742166,
-0.20576262,-0.18196698,-0.08079354,-0.109848216,-0.15386064,0.034375522,0.122039944,0.09365184,0.020605197,0.24352054,0.27712512,0.3051316,0.17189674,0.4291333,0.09487988,-0.24754624,-0.3204945,-0.22885814,-0.7622301,-0.67178255,-0.17258206,0.05022639,0.07245245,-0.68239295,-0.6347253,
0.102551065,0.15588336,0.2618901,-0.05979459,-0.17886448,0.05615006,0.30861756,0.101481505,-0.26696527,-0.113623954,-0.012119726,-0.05999299,-0.2524753,-0.6165795,0.0025418943,-0.09415414,-0.015437877,-0.41180754,-0.34367302,-0.15024458,0.035261936,0.17732784,0.40628526,0.37161857,-0.36194137,
0.03875209
-0.033879556,-0.1849711,-0.25013176,-0.38676012,-0.08875039,0.15492219,-0.02676405,-0.598258,-0.57506144,-0.25918797,0.33588225,0.21759166,-0.6120845,-0.5453341,-0.009875202,0.19694757,-0.0697511,-0.45946085,0.11533114,0.48068395,-0.072229035,-0.24669051,-0.19113855,0.84883803,0.76639146,
-0.04396201,-0.62095225,-0.10858549,0.008586171,0.3447649,-0.43945014,-0.29385045,-0.09337871,0.26982832,0.53123456,-0.39766163,0.06490583,0.20484649,0.23317404,0.21183689,-0.19777203,0.51374096,0.31311625,0.18437469,-0.003179127,0.09574235,0.48067716,0.0124345645,0.062905475,-0.008775316,
0.21961808,-0.13855581,0.007066554,-0.028226929,-0.037316885,-0.40145212,-0.0425228,0.49879137,-0.18311703,-0.17378913,-0.21381868,0.5249526,0.2230915,-0.23601098,-0.15581307,0.13316439,0.04829537,-0.5456534,-0.23462358,0.15316828,0.144795,-0.165626,-0.71112704,-0.37521002,0.31955618,
-0.26322666,0.1950254,0.6025136,0.5007546,0.26392916,0.110023566,0.5675251,0.22255251,-0.055699952,-0.29224688,0.23716924,0.56575054,0.31263298,-0.55527705,-0.6150366,0.104543015,0.20610225,-0.027514284,-0.54772294,-0.31341827,-0.31477165,-0.22510967,-0.19005905,0.23432267,0.2768172,
0.09415964,0.06463758,-0.11245026,0.29934227,-0.06868182,0.25737864,0.09968161,0.29378936,0.43034708,-0.007806916,-0.2132287,-0.09515233,0.14602596,0.0851721,-0.24246398,-0.5075178,0.082807444,0.06183154,-0.0071165343,-0.27031198,-0.42331827,0.23364688,-0.19691883,-0.27993572,-0.2536102,
0.23393579,0.2567841,0.01664036,-0.0028304139,0.09721434,-0.0016990103,-0.2515222,-0.16833746,-0.002458717,-0.16404942,0.44255367,-0.25388512,0.21941653,0.025841963,0.13228756,0.5562989,-0.07875612,0.16624218,-0.43086836,-0.2013271,0.110931374,-0.064235955,-0.7171386,-0.17198494,0.010664562,
-0.0084679965,0.060865887,0.09477693,0.13253899,0.13681881,0.044481672,0.22198479,0.23271963,0.29362375,-0.47381365,0.210734,0.14110391,0.1468961,-0.34989566,-0.24386197,-0.00893686,-0.09696934,-0.36174363,-0.861592,-0.055545367,-0.08398482,-0.11852341,-0.48119795,-0.31155756,0.07319661,
0.33599472,-0.36555085,-0.19116783,-0.15190424,0.115884334,-0.09438062,-0.28056425,-0.12740968,0.1121937,0.4072597,-0.64302313,-0.2269929,0.15264857,0.46011472,0.08872512,-0.84795547,-0.3320743,-0.020630213,-0.16870436,0.09293839,-0.29797077,-0.4529574,0.1239711,0.17301853,0.27815855,
-0.061484944
0.3355446,0.18211046,0.36004356,0.15276451,-0.056071457,-0.079337046,0.023724187,0.29328606,0.14740844,0.19255254,-0.451527,0.054866005,-0.10962831,0.2442325,0.17278853,-0.32437208,0.1999049,0.14246401,0.9874501,0.44064412,-0.09982793,-0.30620503,-0.18349975,0.14979222,0.08795725,
0.17177542,0.39298716,-0.10925485,-0.08741467,0.3101005,0.43898514,0.37715733,0.1955794,-0.07875677,0.26580173,0.43835998,0.46540385,0.13455056,-0.48078293,-0.005149875,-0.22205262,0.11776272,0.10729407,-0.8606043,-0.59786564,-0.62360257,0.051594645,0.35493198,0.05289613,-0.5916816,
-0.10275304,0.19924088,0.08074359,0.03817316,-0.3450776,0.06885506,0.24918982,0.004768429,-0.10276905,-0.347209,-0.08144889,0.02684853,-0.42861506,-0.6907542,0.15833987,-0.5882674,0.22972809,-0.1676885,0.19391294,-0.18987983,-0.4292421,-0.010048921,-0.071553856,-0.08427966,0.13079213,
-0.62622374,-0.55771714,0.32250166,0.5437528,0.019237429,-0.44310462,-0.5005035,0.010712007,-0.08278564,-0.2317343,-0.092468366,-0.31358725,-0.1162107,0.15485497,-0.12148282,-0.46104822,-0.7922808,-0.800686,-0.097259045,0.019845912,-0.0033635253,-0.33892176,-0.30892217,-0.21696067,-0.22236232,
-0.014995345,-0.11336566,-0.35285613,0.024204958,-0.44189626,0.18915895,-0.15203394,-0.8633018,-0.85101515,-1.0906649,0.2757121,0.4449127,-0.27122396,-0.01469785,-0.17466342,-0.16877049,0.59933037,0.23406988,0.092403255,-0.08410313,-0.18508364,0.1774024,0.20874314,0.1805147,0.056657158,
-0.22879124,0.040186092,0.20513783,0.17063904,0.27219602,-0.14524283,-0.2692926,0.22046348,0.11333901,-0.0680785,-0.38743493,-0.028144803,0.24436124,0.36064708,-0.016325664,0.028237747,0.16566831,0.2194121,0.36555132,0.47185087,0.33358318,-0.19531178,0.0018636619,0.10123251,-0.09871988,
-0.028780753,-0.068074204,-0.019211978,0.090728745,-0.4252908,-0.119347334,-0.14610901,-0.43343782,0.047185943,-0.1808324,0.13481785,0.15215644,0.1147411,0.20028338,0.2912318,0.23179267,0.06283041,0.070185,0.03894741,0.4616105,-0.05341734,0.09269128,0.10378766,-0.013905023,-0.4903397,
-0.28034607,-0.0031545977,-0.0407469,-0.063325234,0.3147105,0.0907784,0.015208084,0.12783791,0.054050796,-0.41176498,0.09903725,0.021934928,-0.063477576,0.0749274,-0.13261117,0.1625312,0.41915083,-0.7003921,-1.2290746,-0.4887596,-0.3676682,0.12792502,-0.5444283,-0.70868886,-0.42490774,
0.03573158
0.21944834,-7.2255934e-05,0.2416137,0.23770821,0.04189721,0.50054634,0.37396294,0.15735728,-0.35130414,-0.08694704,0.14366257,0.36185494,0.1817412,-0.29941365,0.033212416,0.0848672,0.055613108,0.1789704,0.08049829,0.096908696,0.7101529,0.08355146,0.084837385,-0.0430633,-0.16030112,
-0.011275923,0.2826984,0.5851632,-0.31628716,-0.25737667,-0.18467166,0.07175181,0.24784136,-0.04895296,-0.18286045,0.0455006,0.39344257,0.41774312,0.22424848,-0.20617917,0.056397032,0.10973359,0.43662432,0.37021697,0.0030429142,-0.14289023,0.2876483,0.274918,0.2830865,0.042196207,
-0.23475778,-0.62281805,0.5512403,0.096034534,0.16428258,-0.33332282,-1.0707302,-0.1972063,-0.61186427,-0.07045874,-0.17494915,0.0011384767,-0.09176324,-0.20798412,0.27805358,0.034473855,-0.29974294,-0.51569134,0.017926086,-0.006534249,0.14258751,0.48625478,-0.18979827,-0.24515001,0.023472654,
0.11097742,0.5099372,0.047608484,-0.22781667,0.10584498,-0.18755893,0.7260489,0.061443396,0.28520447,-0.11893274,-0.15970322,0.2591884,0.45589656,0.5538084,0.12013088,0.31459257,0.012630208,0.22938599,0.4542896,0.014547349,0.45506755,-0.07513954,-0.24948473,0.24947567,0.2590707,
0.3384216,0.20327136,0.20991522,-0.03693718,-0.035410114,-0.8681091,-0.29274413,-0.2013935,-0.46451533,-0.1520572,-0.9149817,-0.5516663,-0.2906787,-0.27404073,0.20154053,0.24836308,0.040783126,0.046581417,0.19814506,-0.13083646,0.1463256,-0.21596609,-0.018251829,-0.39225224,-0.2899125,
-0.07409361,0.38444972,-0.18954325,0.3040327,0.4044049,-0.0025081947,-0.19582759,-0.48748207,0.19378112,0.06657214,0.16112737,-0.5631418,-0.6640886,0.49068168,0.044422746,-0.42189834,0.02111778,-0.8573665,-0.0697604,-0.20507346,0.63257545,0.3492347,-0.5416728,-0.2889807,-0.024069963,
0.06283382,-0.211602,-0.2801551,0.35647443,0.4178426,0.11803245,-0.5108787,-0.6423507,-0.2220997,-0.014902736,-0.25592598,-0.073969305,-0.5337874,-0.23511916,-0.056708645,-0.11053883,-0.23090327,-0.23500668,0.07392599,-0.15447773,0.35198164,-0.07608129,-0.2940179,0.25266832,-0.23404449,
-0.13880238,-0.34457073,0.03794534,-0.21458828,-0.19460885,-0.5730157,0.10111877,0.33484358,0.021836028,0.13902548,0.4464196,-0.10395718,-0.2932143,-0.15275572,-0.10677927,0.63875294,0.19523634,-0.5145697,-0.38517013,-0.5072255,0.062753506,-0.07928316,-0.29366085,0.057952918,-0.2786184,
0.044252384
0.07457732,-0.5231625,-0.51532614,-0.008448332,0.17804934,-0.3033759,-0.5731007,0.18773556,0.841058,0.5300287,0.21769847,0.097198755,0.5247032,0.5821705,0.1078735,0.15130763,-0.26003104,-0.024379786,-0.09513128,-0.15590873,-0.3423858,-0.4560745,0.16373801,0.45135447,0.11017189,
-0.028925413,-0.12193027,0.2035063,0.07326849,0.41357255,0.12228335,-0.012531158,0.12454085,0.0670614,-0.31031665,0.43157017,0.032430846,0.22167574,-0.1366576,-0.5070905,0.1400534,0.030257415,0.16582617,0.088356465,-0.40530357,0.13182485,-0.09298027,0.13146706,0.1973291,-0.39940044,
0.056073494,-0.14766616,0.15975979,-0.14745903,-0.17183776,0.01150921,0.12051742,0.7288279,0.46683076,0.24117392,0.102639094,-0.20717625,-0.0226282,0.43527904,0.5328001,0.08331842,-0.0034188274,-0.22672163,-0.004073716,0.16971543,-0.24437805,-0.19469613,0.20670845,0.29592732,0.07964108,
0.2782205,-0.16445906,-0.33302733,0.17976975,-0.18841453,-0.28967935,-0.44397184,-0.5475586,-0.55873185,-0.27001607,0.1107287,-0.0744882,-0.1410037,0.20273967,-0.031239415,0.018548766,-0.038603015,0.17987727,0.43340462,0.16878113,-0.29412428,0.03179476,0.48211756,0.1721715,0.21191871,
0.29785836,0.47061902,-0.10675044,-0.30519134,-0.39136654,0.2928775,0.312849,-0.07109153,-0.2761987,-0.31258935,-0.63302344,0.58177435,0.41107297,0.15712012,0.07067895,-0.6213878,-0.043993358,0.053794995,0.4699526,0.20000875,-0.2845062,-0.21142168,-0.7440954,0.017346926,-0.120094664,
0.08888463,0.011455731,-0.17364569,0.059914462,-0.067686744,-0.13186,0.21855699,0.6155154,0.41392377,0.15302873,-0.040459227,-0.046777736,0.11507833,-0.13538997,-0.260855,0.33723038,-0.13438126,-0.7669882,-1.0109097,-0.08560949,-0.26577815,-0.035510883,-0.38098708,0.31974447,0.09322601,
-0.0643066,0.16065912,-0.6672199,-0.22297223,-0.11260364,0.024903025,-0.0039138286,-0.40866098,-0.13028607,0.084372304,0.19977957,-0.25298187,-0.014986105,0.439882,0.21705455,-0.18151608,-0.69727784,-0.7363416,-0.24747664,0.10067106,-0.1535545,0.11547081,-0.19648512,-0.00049780816,-0.2792472,
-0.4309064,-0.21923086,-0.01130258,-0.115597785,-0.23425134,0.10889377,0.053447776,0.15500647,-0.28422514,-0.25231728,-0.04002469,0.31630528,0.52142495,-0.37444067,-0.56185925,0.11423547,0.134474,-0.062702954,-0.4644484,-0.37251428,-0.013254853,-0.060895354,-0.32069045,-0.21163967,-0.10333287,
-0.0006882565
0.2121282,-0.07047973,-0.07050991,-0.300057,-0.12712532,-0.22569074,-0.42983687,-0.26375195,-0.17032813,-0.045133878,-0.40767214,-0.1722004,-0.37652856,-0.20700486,-0.014126285,-0.115935974,0.15009457,0.61111253,0.41980803,0.26513886,0.10137503,0.8859618,0.6092882,0.31104138,0.009410448,
0.048703942,-0.060981702,0.054698642,0.009093425,0.041099712,0.33835003,0.26994005,0.12909909,0.08463754,0.26664782,-0.36338142,-0.15042354,-0.7713496,-0.5237709,0.11996986,-0.6366537,-0.5414061,-0.7429783,-0.75322026,0.19722025,-0.46845153,0.11321329,-0.2583077,-0.3653201,0.7809328,
-0.10242206,0.1414679,0.24099945,0.18463454,0.5454275,-0.16436914,-0.31191033,-0.25246778,-0.031700283,0.015380827,-0.125888,-0.62353176,-0.26703545,0.21072705,-0.14002648,-0.19620404,-0.019052621,0.55533344,0.41640872,-0.37969917,-0.21694271,-0.0174699,0.5141024,0.1564534,-0.19266966,
0.43414262,0.40981495,0.3741367,0.15939397,0.18010242,0.014763831,0.2177076,0.26363572,-0.015580418,-0.09574281,0.2868315,0.23390256,0.15870608,-0.009996477,-0.27500048,0.13691272,-0.1764553,-0.17640252,-0.07091775,0.08336334,0.2695296,0.13673812,-0.19069946,-0.5652825,0.09346893,
-0.1266553,0.49955085,0.36527246,-0.02467559,0.03680208,0.2808297,0.28253028,-0.024775656,-0.11963665,-0.39197832,0.38616684,0.02908899,0.0047485577,0.22478235,0.28766865,0.090321,0.06659184,-0.2404713,0.18390587,0.19375104,-0.15575577,0.19221099,-0.44687054,-0.17249496,-0.6725098,
0.028022729,-0.19641578,-0.07527147,-0.22511971,-0.07837863,-0.30822146,-0.31866506,0.07919297,-0.3081765,0.19239525,0.0029152902,0.12623098,0.13643761,-0.02350879,0.13572529,0.641913,0.24162936,0.32326442,0.07749667,0.18584332,0.12997341,0.05361035,0.2647462,-0.4250261,-0.07667083,
0.053260554,0.07072583,-0.18564628,-0.19186834,-0.31541073,-0.24131039,-0.088626444,-0.07499151,0.1022927,0.13263409,0.143716,0.13987562,0.34578872,0.53372514,0.13467288,0.13529006,0.089770906,0.24902913,-0.06625921,-0.12539491,-0.108279295,-0.31340322,-0.5286915,-0.74720216,-0.67052865,
0.09213248,0.18915425,0.15833078,0.056754537,0.2281771,-0.06897761,0.05389861,-0.22573872,-0.13078704,0.44542795,-0.0062642903,-0.07169326,-0.31238484,-0.106211804,0.42421666,-0.39964575,-0.82721865,-1.151367,-0.661915,0.03452768,-0.35758135,-0.42841455,-0.5392087,-0.11325327,-0.09969578,
0.037537977
-0.23366626,-0.11529369,-0.30111173,-0.124574326,0.22642128,0.24702714,0.27438083,-0.21258952,-0.071714945,0.15596908,-0.022884004,-0.24710143,-0.5163431,-0.1540172,0.19618767,-0.41602433,0.19487765,-0.14253964,-0.11594838,-0.059075095,0.21295254,0.13785346,0.11288844,-0.26491797,0.061486874,
-0.058839742,-0.2786773,-0.023585664,0.16444582,0.25242534,-0.35602352,-0.5012782,-0.040270377,0.32317108,0.063890666,0.10139641,0.015296895,0.17459892,0.18952969,-0.49996272,0.11778365,0.19110791,0.24956933,0.021797473,-0.45351708,-0.15413973,0.009456833,0.40065157,0.5620559,-0.13181198,
-0.1337478,-0.23759021,-0.54659086,0.033867024,-0.23147027,0.09553871,0.15100002,-0.14171971,0.32423696,0.025563672,0.32991782,0.48545006,0.3245436,0.02430468,-0.1875019,-0.6183682,-0.12544003,0.1254533,0.022870872,-0.40472713,-0.10689384,-0.15469283,-0.4240768,-0.09824388,0.06812609,
0.09781933,0.0081703495,0.041407976,0.24434625,-0.21392205,0.17260094,0.21198739,0.08300892,-0.061847266,-0.24555868,-0.38044596,-0.47826964,0.3508334,0.11124148,-0.0049291463,-0.29541087,-0.61624146,0.22702824,0.69077986,0.3301191,0.15994658,-0.26036268,-0.3785537,0.06973099,0.53544176,
-0.3566962,0.041553695,-0.25663692,0.10064131,0.092387125,0.21305972,0.023924269,-0.80638754,-0.018489523,0.05402906,0.29769608,0.44164622,-0.17762797,0.13729109,-0.039676506,0.07718321,0.4981631,-0.2921666,0.26860335,-0.06869381,-0.073259406,-0.07019148,-0.16268773,-0.1816555,-0.41610506,
-0.13958132,0.015627764,0.3160532,-0.37160093,0.1938318,0.4671756,0.20070033,0.34279957,0.10584105,-0.24852404,-0.1700507,-0.36902335,0.24437563,0.75385815,-0.061028782,-0.072190106,-0.53809917,-0.12965909,0.3187373,-0.21306713,0.3964867,-0.13527541,-0.96383786,-0.8215885,-0.007882851,
0.23740107,0.22600773,-0.11251761,0.7362504,0.114229195,0.062271528,0.12100218,-0.10949104,0.34583905,-0.114856355,-0.22728479,-0.48611194,0.071073025,0.22439535,0.04255629,-0.37265435,-0.85187596,-0.3109682,0.15485893,0.30962986,0.45566526,-0.122610435,-0.82068884,-0.661082,-0.5108532,
-0.13192247,0.14247273,0.095877804,0.19701041,-0.20220941,-0.15102343,-0.20467357,-0.48596784,0.16833489,-0.033158757,0.41230473,-0.051904302,-0.40444753,-0.20561782,-0.07062069,0.2865795,0.18064289,-0.24423976,-0.27264956,-0.36082885,-0.24124676,0.4207884,0.1440979,0.0063246973,-0.3815805,
-0.0056565586
-0.04945688,-0.25538948,-0.21400198,0.004305131,0.25776914,-0.33637184,-0.0805915,0.3202518,0.38842392,-0.08007112,-0.119837895,0.00488901,-0.42486843,-0.4550689,-0.32924727,0.4270973,-0.14379507,-0.16862339,0.022292545,-0.26773247,0.09232248,0.025918545,0.54318815,0.18745756,-0.107644126,
0.18871643,-0.054614034,-0.3044469,-0.18920076,-0.26060662,0.2945034,-0.13022915,-0.06648416,0.070750535,0.14644809,0.26559916,-0.17679906,-0.20615518,0.1879739,0.44533563,-0.117372595,-0.29516843,-0.79270065,-0.22767112,0.56537014,-0.09018377,0.12378656,-0.62796783,-0.044633385,0.3352397,
0.21533701,0.12080683,0.3098225,0.3350429,0.37866637,-0.29616505,-0.3512959,-0.27107638,0.4140786,0.32478654,-0.4685491,-0.25286263,0.060949575,0.25897118,-0.08471824,0.0402694,-0.06921786,0.81077564,-0.1036499,-0.18204044,-0.12621988,-0.18867092,-0.13177088,0.4956994,0.08587028,
-0.073470935,-0.17157207,-0.34311116,0.071012184,0.15662561,-0.049937665,-0.04382234,-0.017903466,0.20824233,0.26786768,0.48542827,0.62481844,0.8795072,0.26491487,0.11640386,0.15454885,0.10584884,0.65396506,0.06689145,-0.4254039,-0.16786626,-0.10526009,-0.13161035,-0.37732443,-0.64687026,
-0.25594127,0.011598519,-0.071581185,-0.063570045,-0.12839301,0.15456796,0.25546658,0.09677767,0.48290697,0.36368802,0.060581803,0.033233985,-0.28119847,0.02789538,-0.18180369,-0.42246157,-0.59579086,-0.52400064,-0.016132373,0.41467488,-0.07763602,0.2737346,-0.37114596,-0.3190225,0.21593249,
0.034997996,0.16094065,-0.22423205,-0.13351199,0.051909044,-0.20630628,-0.2396404,-0.061442856,-0.019648194,-0.37283954,-0.4070063,-0.17405175,-0.23513539,-1.1218357,-0.5182618,0.46056724,0.4536826,0.24255668,0.025094464,0.1474189,0.6550313,-0.025649834,-0.12968552,0.31035385,-0.24667048,
0.013017444,-0.12435862,-0.23840454,0.08840165,0.50657064,-0.18869333,0.17126043,-0.08036258,-0.010982012,-0.090319626,-0.11094757,0.053357285,-0.006675082,-0.45927528,-1.2839068,0.3197768,0.16343577,0.1810247,0.33942494,-0.64434767,0.058489956,0.03233123,-0.15806308,-0.038558148,-0.62488437,
0.03627305,-0.021526571,0.37229526,0.12556033,-0.18561639,0.096493594,0.05434042,0.0072234175,-0.054204173,0.009539093,-0.116130024,0.0067060417,0.2873606,-0.15019488,0.19443014,-0.33065075,-0.4628002,-0.3310701,0.21476947,0.45957294,-0.35604963,-0.031366277,-0.5067114,-0.23371746,-0.04823575,
-0.0046434333
-0.22270285,0.0023797338,0.09572892,0.08924393,0.18876797,0.22128403,0.075402334,0.16656655,0.34288868,0.4296645,-0.1457665,-0.3845719,-0.45346612,-0.253775,0.01920186,-0.17008263,-0.4177353,-0.2126702,-0.113083616,0.06640627,0.21345457,-0.08276255,-0.35669357,-0.21000181,-0.02759624,
-0.28859487,0.14971663,-0.020087766,-0.17806147,0.085281774,-0.29010776,0.12425761,-0.03474136,-0.010353249,-0.04673002,0.56668895,0.50374377,0.28377196,0.15648457,-0.089915514,0.1545537,0.097082265,0.08703249,0.016830496,0.24552651,-0.17804456,-0.084272854,-0.083634704,-0.16425368,0.08960087,
-0.07715966,-0.32559937,0.06083816,0.31626114,0.19677703,0.48484474,0.29379198,0.2919638,0.4434635,0.33334795,-0.13838506,0.06053224,0.12950103,-0.46955687,-0.28651512,-0.8755009,-0.3890808,0.043856513,-0.6895913,-0.64225185,0.016180309,-0.22854668,0.57178116,0.38602298,-0.17791389,
0.24259646,-0.13763113,-0.13766228,-0.015064468,-0.00895994,0.46691972,-0.033105843,0.31373182,0.08379835,-0.086560816,-0.24490091,-0.23005727,-0.16004473,0.116295226,0.22318055,-0.10001548,0.31073755,0.32642174,-0.120186135,-0.037639786,0.34790814,0.113584764,0.5084235,0.25311345,-0.044070203,
-0.40030643,0.038308207,0.140927,-0.087402955,-0.06655955,-0.46924177,0.068561725,0.33216602,0.31887978,0.0945264,-0.18540041,0.011373026,0.4571966,0.25044584,-0.14898643,0.07796557,0.1189742,0.19214402,-0.1668706,-0.41640934,-0.36496285,0.061487712,-0.055791628,-0.11736242,-0.28888366,
0.29047802,0.18490967,0.13315041,0.022383632,-0.24334715,-0.08085733,-0.08242498,-0.11815732,0.07833228,0.08918226,-0.13946699,-0.58649457,-0.58346045,-1.0346743,-0.32524315,0.33900627,0.14849274,0.7210087,-0.106499076,-0.17465565,0.31153148,-0.02854831,0.16947174,-0.0067097857,0.22897147,
0.37817046,0.19166087,0.34746876,0.034410678,-0.18269108,-0.080003835,-0.07921213,-0.16623344,-0.05967049,0.25344574,-0.5529702,-0.5157955,-0.41868705,-1.0430546,-0.6819035,0.034393564,0.33054033,0.5372054,-0.12794523,-0.06261511,0.37579018,-0.075515114,0.60429734,0.27281845,0.3442562,
-0.17365041,-0.116713,0.17054926,-0.17247905,-0.04475462,-0.08981935,-0.14363532,0.06857797,0.04455332,0.0751323,0.2801276,-0.24405673,0.1284629,0.44266528,-0.060214605,-0.038268246,-0.2664366,0.11192014,0.02615944,0.5765272,-0.9468316,-0.9053248,-0.36258036,0.008455113,0.07300733,
0.11543453
0.080598496,-0.07784609,-0.16228993,-0.04046249,-0.08759879,0.1771371,0.14896618,-0.30809912,0.040461678,0.013593365,0.76250446,0.1412906,-0.28702226,-0.09105956,-0.09857326,0.19730453,-0.63170254,-0.37608847,-0.52558845,-0.12060064,0.15924579,-0.27649578,-0.112756275,0.052719284,0.36230537,
-0.025977647,0.05362237,0.359273,0.258882,-0.23196118,0.016257165,0.31598482,0.5389354,0.09803527,-0.846467,-0.47110558,0.42006594,0.27502984,-0.0006230699,-0.64885014,0.00456804,0.41298965,0.28268018,-0.08104999,-0.6999604,-0.12450859,0.113960944,0.3259904,0.08394607,-0.5605319,
-0.3550674,-0.15873341,-0.04206422,0.091497816,0.21951865,-0.29231653,-0.1544452,0.09481504,0.12162646,0.46884596,0.25115106,0.20018934,-0.22166118,-0.4529963,0.13289897,0.4904635,0.827244,0.101499945,-0.4659644,-0.029517092,-0.13366668,0.25306174,0.021499736,-0.30536452,0.0713836,
-0.024800241,0.08677518,-0.39654362,-0.24161154,-0.22833996,0.1985598,-0.29741484,-0.6770987,-0.17777048,0.09588998,0.08995601,-0.10549015,-0.32983524,0.24796627,0.04501658,-0.38341874,-0.120696776,-0.30382496,0.35205096,0.48438615,-0.5227107,-0.34949344,-0.03535689,0.0587547,0.5551275,
0.6261232,0.18811412,-0.042187866,-0.13586362,-0.54461265,-0.017582491,0.122597106,0.21595751,0.16858529,-0.3916412,-0.7325325,-0.007918024,0.39428264,0.0813161,-0.22783864,-0.80275226,0.13710111,0.0083308015,0.18394345,0.16127962,-0.19534753,0.17192113,0.17015122,-0.16564797,0.06167559,
-0.33751953,0.04509278,-0.15723178,-0.066878654,-0.3258365,0.14874287,-0.2695986,-0.56538093,0.19040549,0.1753872,0.30407014,-0.42815062,-0.22001745,0.72874427,-0.11149499,0.4268023,-0.1176565,0.12781215,0.25620332,-0.20896836,-0.037917327,-0.48989803,-0.32262316,0.19059885,0.19727345,
0.3729951,-0.11716529,-0.27497357,-0.35585898,-0.22887655,0.19686873,-0.32117793,-0.17569701,-0.19960849,0.061542857,0.030913495,0.39994314,0.13337344,0.3430185,0.31020498,-0.35069832,0.19139299,0.34724435,0.3900592,0.15880086,-0.4481752,-0.2592919,0.234415,0.17673102,-0.3346781,
-0.093605034,-0.057256896,-0.009269282,-0.036146376,-0.013573479,-0.22834182,0.13835417,0.2147005,0.24086355,-0.07588664,-0.4453996,0.0090643745,0.31282386,-0.19963782,-0.403326,-0.115648285,-0.07381744,-0.27766123,-0.5415063,-0.014791779,0.18682007,0.12050164,-0.6280235,-0.7607721,-0.22788176,
0.012061181
0.0690302,0.250575,-0.015298113,-0.363049,-0.34993988,0.14845036,-0.30557826,-0.0045507397,-0.16583169,-0.19471358,-0.31406876,-0.42543617,0.16537932,0.6060885,0.18197542,-0.19688237,0.008055159,0.5938009,0.759667,0.15159525,0.1845957,-0.5176825,0.19669732,0.07609848,-0.10501376,
0.3540412,0.076543026,0.12367133,0.15452959,-0.0022069374,0.28391483,0.17476146,0.060288742,0.18449494,0.13761269,0.49188218,0.31649038,0.06687346,0.26505774,0.14039057,-0.3734646,-0.42027375,-0.72790754,-0.2559453,0.26121262,-0.43127188,-0.25428817,-0.96164674,-0.7642422,0.49175325,
-0.49688068,-0.01780207,0.41525692,0.05199159,-0.0046571046,-0.18633495,0.031220874,-0.006394898,0.12719227,0.011558298,0.4023778,-0.024571547,-0.3094586,0.12978289,0.16098371,0.087922886,-0.66515595,-0.14064443,0.24559991,0.29791299,-0.028774798,-0.37146488,-0.16248244,0.13857044,0.21053325,
-0.3428412,-0.19165513,0.4955284,0.15477055,0.0769377,-0.1559044,-0.23141016,-0.2276974,0.08441648,0.16313006,0.15956022,-0.34891787,-0.66296446,-0.7064988,0.094103575,0.33438113,-0.26780647,-0.33978668,-0.6480147,-0.10978405,0.31402496,-0.32141343,-0.013424716,-0.05662606,-0.12618524,
0.105597444,0.24430025,0.22310807,0.14446639,0.017762683,0.30606258,0.1256672,0.15208264,-0.1881712,-0.11184269,0.1085011,0.12797731,-0.15903029,-0.30964828,-0.6451862,-0.2578426,-0.01709102,-0.4111824,-0.5803958,-0.1343565,0.20024584,0.47338167,0.7287276,-0.1772286,-0.12192548,
-0.68150175,-0.20152159,-0.022856226,-0.17796193,0.14236616,-0.01754783,-0.019730525,0.25124267,-0.2038986,0.18998341,-0.1908705,-0.2837427,-0.1783162,-0.7459343,-0.2020072,0.34219575,0.15071832,0.31032938,-0.28970906,0.09800321,0.52315956,0.6796353,0.60942745,0.33080158,0.021493638,
-0.40511787,-0.003096634,-0.2175003,-0.14140992,-0.03529284,-0.0034351507,0.2809978,0.07762068,-0.65560067,-0.17737547,-0.26112926,0.10695922,0.12936684,-0.28170124,-0.44765607,0.1605496,0.038414992,0.13535507,0.13930626,-0.14079101,0.22451828,0.058828406,-0.3174839,-0.40051898,-0.16631792,
0.34370586,0.06216743,-0.06690043,0.096880935,0.21997812,-0.042205147,-0.0048472392,0.08007595,0.053266916,-0.114804894,-0.09612976,-0.029788157,0.12652731,0.30604655,-0.15186386,-0.14490354,0.110471286,0.5812188,0.4623238,-0.34575254,-1.1050131,-0.28491327,-0.12454587,-0.3780426,-0.27283096,
-0.054486006
0.42616487,0.3314891,-0.009030286,-0.021998836,-0.12111889,0.106173106,0.12269813,-0.27834034,-0.25040734,0.040130626,-0.18338,-0.33881947,0.13861182,0.65318197,0.5110231,0.6738979,0.2586268,0.2977626,0.362185,0.059632074,-0.13686143,-0.2575111,-0.5146348,-0.673191,-0.18904617,
-0.5890069,0.11662158,0.23924273,-0.0709756,-0.2134872,0.08256599,0.0827062,0.09876294,0.02845186,-0.27723226,0.21029335,0.4008554,0.365986,0.19557428,-0.03527123,-0.46440744,0.089114204,0.3684521,-0.0022643453,-0.2234994,-0.1653027,0.006465848,-0.14123648,0.041654985,-0.2457996,
-0.3850076,0.045676015,0.21713206,0.34391826,0.08266556,0.081810124,0.5856289,0.25928634,0.1682457,-0.06898301,-0.1685262,-0.15701449,-0.17451313,-0.01684148,0.41526097,0.12382409,-0.64861023,-0.873859,0.06746074,0.17209111,0.43426713,0.40535736,0.24721055,0.45091859,0.093898185,
-0.08911133,0.1528153,0.2119335,0.048401296,0.07850058,-0.13620673,-0.45414,-0.39513987,-0.17798151,0.048571434,0.28830895,-0.2901306,-0.32954764,-0.27071068,0.11744116,0.35423684,0.179031,0.5325505,0.5113463,0.26986247,-0.39811203,-0.374902,0.10652784,0.25248864,0.17730352,
-0.20285946,-0.010359721,0.24368227,0.27025667,0.11142417,-0.36405966,-0.07887654,-0.20479797,-0.3017775,0.022115387,-0.1350514,0.5220232,0.09304221,-0.51616216,-0.4192499,-0.24444605,0.06102913,-0.0073560053,-0.010329712,0.27699518,-0.42240572,0.085576534,-0.028184075,-0.16481352,0.06829436,
0.59498703,0.3995359,0.03796446,-0.19499892,-0.15807953,0.061234348,-0.44836462,-0.40584615,-0.049823623,0.094877295,-0.03939584,-0.5682982,-0.12069708,-0.037069157,-0.019471884,0.5691665,0.26124942,0.56962615,-0.0799069,-0.049342576,-0.024138853,0.10092359,-0.60179013,-0.52529854,-0.17246337,
0.3269007,0.28158525,0.0064880187,-0.04649231,0.13834544,-0.23055264,-0.18055336,0.061861664,-0.1467502,0.106106475,0.046954412,-0.20081702,-0.053342942,-0.11205816,0.36496615,0.30861637,0.06059857,-0.044119008,-0.325895,0.22315799,-0.59440976,-0.7477328,-0.79489046,-0.60162836,-0.39467937,
-0.038791273,-0.3327974,-0.0328983,0.27485618,0.014080893,0.11171257,-0.1848027,0.16895923,0.111397505,-0.26291785,-0.2702575,0.20964976,0.07526203,-0.030232547,-0.19419621,-1.5447818,-0.32692116,0.074822575,0.3807695,0.11116511,-0.101374365,-0.25036126,0.14511523,0.12760907,-0.14712933,
-0.0967465
layer 5 BatchNormalization
1.3567369,-1.0429578,-2.5655766,8.400537
1.9346334,-0.2335687,-2.9388144,12.869147
1.5128812,-1.102272,-1.7124921,10.506118
1.9863092,-0.8562246,-2.4625523,10.704232
1.7347031,-0.95004857,-3.057123,8.906307
1.7783934,-0.8224444,-2.5454588,12.13732
1.5812988,-0.9071408,-2.1435192,11.485886
1.4011478,-0.5110659,-2.7505896,11.55456
1.8241812,-0.628282,-2.5087686,8.617477
1.8744947,-0.6808168,-2.0967734,12.870378
1.62343,-1.1371379,-3.2125442,9.913688
1.7114483,-0.7086356,-2.4868405,8.205904
1.4907968,-0.4653124,-1.0139475,5.95991
1.431514,-0.7713419,-2.4327502,9.94614
1.7836001,-1.30918,-2.5575347,9.966201
1.7541089,-0.5193818,-2.2188478,8.902976
layer 6 Activation
relu
layer 7 MaxPooling2D
3 3 valid
layer 8 Flatten
layer 9 Dense
64 10
0.41271803,-0.45262197,-0.11800194,0.5006927,-0.2982951,-0.7219045,0.21979383,0.044412512,-0.012220876,0.54835546,-0.07431794,0.123960495,-0.19225949,-0.16063681,-0.14622815,-0.048658222,0.06476994,-0.13065712,0.31284216,-1.0627338,0.29323557,-0.3608535,-0.04851171,0.22846976,-0.6824788,0.4320814,0.33973598,-0.13130741,0.20008205,-0.2628034,0.97791225,-0.041668873,-0.13538124,-0.048899695,-0.020187603,0.23515543,-0.43713576,-0.6816328,0.3283294,-0.21371964,0.20035785,0.47346428,0.108847484,0.1634396,-0.6583985,-0.42121392,-0.40322113,0.12570637,-0.113130935,0.10603542,0.025615908,-0.60679126,1.371414,-0.9633196,0.5042556,-0.4306139,-0.6106954,1.029551,0.2617968,0.049152717,0.837879,0.12437796,0.44928586,-0.7884306,
0.13390566
0.5973767,0.09939098,-0.14866462,-0.12147269,0.0714662,0.07609867,0.5141543,-0.8724874,-0.30235434,-0.49317458,0.37976983,-0.46803713,-0.04673606,-0.118880354,-0.33619463,0.55338115,0.08567261,-0.88649607,-0.020467453,-0.37563717,-0.4612852,0.08371897,0.41408476,-0.92030305,-1.2080022,0.19520602,0.47014785,0.08996437,0.6433134,1.0531039,0.21472819,0.08371206,0.49568418,0.5473043,0.0022603027,-0.40920964,0.6116148,0.45823532,1.2227563,-0.25157338,-0.019004265,-0.46329373,0.7142278,-0.42830163,0.2616978,-0.31554806,-0.39020336,0.22549893,0.22535379,-0.73678464,-0.19954999,0.12677242,-0.27585405,0.17578734,0.55071837,-0.93439656,-0.3623844,-0.023790902,0.24298297,0.28380835,0.19142254,-0.11492426,0.13235588,0.7069307,
0.3624245
0.28371966,-0.03815235,0.39303115,-0.7042171,0.4494626,0.45990643,-0.30062175,-0.10843542,-0.22636329,-0.3996387,-0.5358284,-0.45874178,0.24853235,-0.16388468,-0.81067514,0.27120745,0.041059528,0.19193977,-0.07947617,-0.18418567,-0.12527263,0.6370881,0.3285274,-0.12440981,0.28151572,-0.65830284,-0.26451567,0.25308353,-0.39741015,-0.23014863,-0.016220622,0.039746277,0.22455458,0.13198294,0.5240838,-0.40904114,-0.11852397,1.108614,-0.40973917,0.011454145,-0.52156776,-0.6329655,-0.30678537,-0.08290841,0.6176102,-0.5480322,-0.28632066,-0.24873821,-0.1289122,-0.14647585,0.21624029,-0.2960694,0.32043022,0.82644683,0.1811288,-0.5681959,0.04331601,-1.348357,-0.9938197,1.1963767,-0.63801575,-0.65583223,-0.38447958,-0.19971853,
0.05719741
0.20784828,-0.19973396,-0.015342308,-0.030220484,0.016448665,0.7313427,-0.53803974,0.195578,0.0014246232,-0.11551837,0.05474541,-0.7151416,0.04603425,-0.43011975,0.47071463,0.2104414,-0.13099095,-0.011453467,0.59864795,-0.46417654,-0.22190459,0.15958223,-0.010332312,-0.004784738,0.50307983,0.18723391,-0.060435142,-0.0049517676,0.36106133,-0.20519944,-0.58958006,-0.33391854,0.47679806,-0.23371193,-0.61214006,0.14108692,0.7211242,0.064524785,-1.0359207,-0.46641454,-0.09607642,0.03928593,0.10850179,-0.57832307,0.29314467,-0.17966837,1.0328069,-0.14755295,-0.48598164,0.97370726,0.78484416,-0.43704632,-0.5490258,-1.3856336,0.11305851,-0.14357547,0.3366487,0.73056626,0.16977516,-0.5841417,0.91627383,-0.11818098,-0.7879428,-1.0558096,
-0.52294
0.40148804,0.24742554,-0.0036274006,0.21681803,0.3856696,-0.13049862,-0.34283426,-0.32609153,0.10196771,-0.17617348,-0.1504276,-0.15202169,0.03000758,0.19040135,-0.2428364,0.025044996,-0.41509703,0.42990538,0.281714,0.5004883,-0.52682334,-1.2680424,-0.24239819,-0.16352998,-0.7769461,0.48537478,0.27605596,-0.14207928,0.38845485,0.44567877,-0.49171788,-0.9564865,-0.02476737,0.29470143,0.61565036,-0.054331988,0.36082962,0.32438368,-1.2297442,0.09847556,-0.186046,-0.53242797,-0.2855773,0.52557564,0.23670235,0.071472526,-0.049453873,-0.06907871,-0.99428546,0.6837004,-0.020609977,1.0226865,-0.8001958,-0.7474286,-0.2746377,0.44090772,-1.2054467,-0.73388237,0.27531588,0.061133754,-0.67380124,-0.23449625,0.111299746,-0.76119745,
0.6159376
-0.44533923,-0.42620593,0.477456,0.2249147,-0.13188389,0.083660305,-0.3845679,0.38446727,-0.093640685,-0.5216673,-0.0330598,0.10227779,0.10134673,-0.062148962,0.29878914,-0.221561,-0.008667337,-0.3663914,-1.0249078,0.92227256,0.51555383,0.57677317,-0.11520351,0.37974322,0.47503898,-0.8065215,-0.043554377,0.063449726,-0.23190731,-0.62468505,0.16597572,-0.08442583,-0.24818419,-0.5445197,0.009700314,0.9260666,-0.46309894,0.08657414,-0.96332437,0.29762623,-0.1452379,-0.9919386,-0.21179664,0.08913624,0.07563447,-0.021309588,0.17551881,-0.23353116,0.021574778,-0.3852573,-1.2672656,0.39205438,0.36810687,0.40429887,-0.26167697,0.4016482,0.6642574,-1.129479,0.20697881,-0.28565753,-0.5774133,-0.54644483,0.13165818,-0.12118531,
0.09209156
-0.2899181,-0.45132795,0.13874559,0.22606511,-0.33673984,0.037038837,0.30002743,0.40447605,-0.07157392,0.11628835,-0.26803613,0.35930154,-0.5086282,0.06904637,-0.14164816,-0.3677969,-0.2324574,0.022132626,-1.1395175,0.80107564,0.25582677,0.088216305,-0.11729987,-0.024258234,0.74140847,-0.4426378,-0.46905985,-0.2915387,0.1251862,-0.5451171,0.02820011,0.34948477,-0.025714485,-0.17113961,-0.20798235,-0.31811517,-0.48344487,-0.1337496,1.0928515,0.3355071,-0.6800889,0.5722764,-0.3524835,-0.10997395,-0.5315574,0.16854085,-0.48981783,0.1981382,0.85922277,0.18787625,-1.6684496,-0.11860502,0.20147236,-0.031146511,-0.3466142,0.3063686,0.39953023,0.122074,-1.2856563,-0.3691113,0.49269754,-0.11658783,-0.40482453,0.24404514,
0.002508183
0.30401653,-0.1318947,-0.09331035,0.51916,0.263984,0.5075446,-0.006236496,-0.09243797,-0.1352395,0.27494323,-0.22848134,-0.37849927,-0.24436976,-0.29854327,0.122323215,0.6944212,0.8593132,-0.6099686,-0.032315668,-0.17596027,-0.39729276,0.67740417,-0.60834,-0.15326615,-0.5870159,0.60121506,-0.6907386,0.3590593,0.1329524,0.53152806,-0.18833245,-0.30935982,-0.30169535,0.007769405,-0.31068507,-0.15741512,0.36651087,0.20562641,0.018242715,-0.27377692,-0.5304819,0.17683966,0.013862017,0.08442397,-0.09001942,0.66972905,0.022330498,0.23418894,-0.43765873,-1.0071493,0.16338137,-0.2955675,-0.21363506,0.70623076,-0.03793365,-0.18887682,-0.056078173,-0.0010642807,-1.272984,0.63843477,-0.20053206,0.6643234,-1.2699306,0.60517925,
-0.11176416
-0.09596782,-0.119616866,0.11992167,-0.50420403,-0.48856568,-0.4003411,-0.072039165,0.085330464,0.29120943,0.006817515,-0.21051176,0.28038028,-0.24078019,0.05199817,-0.07072164,-0.16827804,-0.35865745,0.32644314,0.40799117,-0.65098584,0.06159351,-0.40592816,-0.1835018,0.12426358,0.24810572,-0.15222281,-0.47188506,-0.13221651,-0.5060658,0.09153858,-0.42895776,0.56824034,-0.6078404,-0.049189907,0.25447208,-0.54292834,-0.8395285,-0.079489626,0.58722854,0.16850096,0.05237322,0.02693657,-0.3742951,0.6743341,-0.40886766,0.26500425,-0.86305225,0.08627929,-0.83981633,0.22501649,0.6416947,-0.4544879,-0.16401507,-0.29873204,-0.39786008,0.43882692,0.14070849,-0.56259763,-0.39001262,-0.6365559,-0.30424923,0.20016517,-0.44915798,0.64717644,
0.14486575
-0.39654955,0.008396223,-0.064281985,-0.11099,-0.2287597,-0.7132581,-0.13649005,0.35344425,0.36976397,0.18119854,0.13223603,0.60849243,-0.24153014,-0.034117445,0.61447823,-0.21955621,-0.5752853,0.2546491,-0.13844945,-0.5089544,-0.15363888,-0.5427765,-0.052270763,0.7337511,-0.20150326,-0.012765258,0.33558452,-0.1382111,-0.53005016,-0.17015629,0.12605265,0.40122285,0.23649178,0.10117488,-0.0019937821,0.7613134,-0.47913507,-0.4535517,-1.0361372,0.10146293,0.5576508,-0.25063244,0.017525801,0.08569313,0.31759667,0.047399003,0.46680865,-0.56960845,0.48362413,-0.4476721,0.53938806,-0.43821165,-0.13066167,-0.165164,-0.54981583,0.33947504,-0.5015441,0.1005352,1.1783024,-0.42405874,-1.0919868,0.9947973,1.4216611,-0.26700914,
-0.5210612
layer 10 Activation
softmax
