layers 11
layer 0 Conv2D
5 5 1 8
[ 0.2038639  -0.05012623  0.5706168  -0.02210488  0.19161907  0.54344594
 -0.2602635  -0.38651502]
[-0.103684   -0.04192996  0.27982607 -0.26145175 -0.04364982 -0.13842775
 -0.18827187 -0.73207307]
[-0.06068709 -0.12315162 -0.10227747  0.03540244 -0.05608815 -0.2306321
  0.08519086 -0.55948013]
[-0.05818352 -0.1408509  -0.4378819   0.15218425  0.12212115 -0.2079536
  0.23577067 -0.09458311]
[ 0.07292911  0.1871864   0.14177889  0.12455416  0.09003653 -0.0210914
 -0.00360216  0.4340971 ]
[ 0.17782775 -0.08679341  0.32955787 -0.12480947  0.14588079  0.52844274
 -0.16923589  0.30500177]
[ 0.10035747 -0.32463586  0.21343389 -0.27482963  0.27539626 -0.186971
 -0.29624906  0.24096566]
[-0.11124039 -0.14720641 -0.28779054  0.48752525  0.12405822 -0.30272996
  0.30570284 -0.05511502]
[-0.28532425  0.00632631 -0.14118816  0.10040986 -0.12909119 -0.23634882
  0.11815597 -0.5808526 ]
[ 0.04700435  0.20166531  0.32292667 -0.18614763 -0.42217577 -0.23912242
  0.16816446 -0.46251473]
[ 0.03185667  0.30895412  0.27582508 -0.25459892  0.3341945   0.7232926
 -0.41168925 -0.09600017]
[ 0.4175557   0.46794453 -0.11603514  0.25663874  0.15842308 -0.05371373
 -0.38725856  0.3673411 ]
[ 0.3516016   0.59163105 -0.09128141  0.6534271  -0.02026447 -0.03202153
  0.05955714  0.4452772 ]
[-0.43276078  0.34217954  0.46465313 -0.19769734  0.08734453 -0.02045046
  0.28365347  0.3159804 ]
[-0.2631164   0.0468161   0.30404782 -0.2256787  -0.73454356 -0.32498124
  0.40091372 -0.04502354]
[-0.48656726  0.32138687 -0.20289224 -0.00432882  0.31388324  0.5081051
 -0.2725577   0.00573625]
[ 0.11282007  0.45738447 -0.42685208  0.567728    0.10701618  0.0804483
 -0.6423899  -0.08716819]
[ 0.76122326  0.25547916  0.22997744  0.12974559 -0.43672165 -0.0777502
  0.01779184  0.17153588]
[ 0.20239322 -0.16082636  0.50440305 -0.6689491  -0.5937208  -0.17990275
  0.3331527   0.1070438 ]
[-0.38752535 -0.2477964  -0.01520808 -0.17674197 -0.6008093  -0.4271911
  0.44116786  0.12227655]
[-0.01183908 -0.51469564 -0.49508628  0.29885292 -0.17414728  0.46882185
 -0.0687073   0.0700951 ]
[-0.62691325 -0.5648195  -0.4405957  -0.03587143 -0.45697728  0.3328239
 -0.48742142  0.18174887]
[ 0.04279616 -0.5122564   0.02125259 -0.32365042 -0.54466647  0.09735285
  0.05223052  0.1311893 ]
[ 0.42814267 -0.21595547 -0.03962498 -0.3896608  -0.38112807 -0.26807803
  0.5622077   0.04537795]
[-0.12087499  0.12267828 -0.20949052  0.4354476   0.35509172 -0.05498873
  0.08473316  0.3054024 ]
[ 0.07952683 -0.39076966  0.01923413 -0.16090152 -0.02280766 -0.15848958
 -0.14927167  0.15567987]
layer 1 BatchNormalization
[1.1175389  0.97124404 0.8651832  1.0112203  0.87969893 1.4322081
 1.3130335  0.7906144 ]
[-0.36551213 -0.3269187  -0.32742828 -0.2760902   0.03568219 -0.17073287
  0.0282026   0.06106105]
[ 0.01766387 -0.35970238  0.14470196 -0.1943664  -0.16552018 -0.22458324
 -0.07271076  0.05867692]
[0.61547184 1.6468495  1.5141119  0.74655384 5.373823   4.165564
 4.292258   1.6918399 ]
layer 2 Activation
relu
layer 3 MaxPooling2D
2 2
layer 4 Conv2D
5 5 8 16
[ 0.05770802 -0.7214818   0.05014266  0.04387341 -0.1798629  -0.03387956
  0.3355446   0.21944834  0.07457732  0.2121282  -0.23366626 -0.04945688
 -0.22270285  0.0805985   0.0690302   0.42616487]
[-0.16297126  0.3044462   0.04601678  0.10659784  0.18462802 -0.04396201
  0.17177542 -0.01127592 -0.02892541  0.04870394 -0.05883974  0.18871643
 -0.28859487 -0.02597765  0.3540412  -0.5890069 ]
[-7.5309217e-06 -1.7287923e-01 -6.2616840e-02 -5.9871804e-02
  8.0136701e-02  2.1961808e-01 -1.0275304e-01 -2.3475778e-01
  5.6073494e-02 -1.0242206e-01 -1.3374780e-01  2.1533701e-01
 -7.7159658e-02 -3.5506740e-01 -4.9688068e-01 -3.8500759e-01]
[ 0.36898342  0.10832102  0.01481546 -0.02420901 -0.1446322  -0.26322666
 -0.62622374  0.11097742  0.2782205   0.43414262  0.09781933 -0.07347094
  0.24259646 -0.02480024 -0.3428412  -0.08911133]
[-0.16987604  0.1973109   0.21777329 -0.06222426 -0.14763059  0.09415964
 -0.01499534  0.3384216   0.29785836 -0.1266553  -0.3566962  -0.25594127
 -0.40030643  0.6261232   0.10559744 -0.20285946]
[ 0.11913478  0.32096216 -0.1491661   0.12428606 -0.34158918  0.23393579
 -0.22879124 -0.07409361  0.08888463  0.02802273 -0.13958132  0.034998
  0.29047802 -0.33751953 -0.68150175  0.59498703]
[ 0.17185082 -0.26569948  0.05339323 -0.04030069 -0.20576262 -0.008468
 -0.02878075  0.06283382 -0.0643066   0.05326055  0.23740107  0.01301744
  0.37817046  0.3729951  -0.40511787  0.3269007 ]
[-0.28085017 -0.27418464  0.01415029 -0.11080126  0.10255107  0.33599472
 -0.28034607 -0.13880238 -0.4309064   0.09213248 -0.13192247  0.03627305
 -0.17365041 -0.09360503  0.34370586 -0.03879127]
[ 1.3174151e-02 -5.4789215e-01 -2.9965308e-01  2.4924728e-01
 -5.1551920e-01 -1.8497109e-01  1.8211046e-01 -7.2255934e-05
 -5.2316248e-01 -7.0479728e-02 -1.1529369e-01 -2.5538948e-01
  2.3797338e-03 -7.7846088e-02  2.5057501e-01  3.3148909e-01]
[ 0.07844701  0.09384993 -0.09190202  0.01680613  0.08343285 -0.62095225
  0.39298716  0.2826984  -0.12193027 -0.0609817  -0.2786773  -0.05461403
  0.14971663  0.05362237  0.07654303  0.11662158]
[-0.39210993  0.0074682  -0.0690942  -0.13841508 -0.11442637 -0.13855581
  0.19924088 -0.62281805 -0.14766616  0.1414679  -0.23759021  0.12080683
 -0.32559937 -0.15873341 -0.01780207  0.04567602]
[ 0.39322215  0.04992246  0.23072508  0.04719542 -0.7228519   0.1950254
 -0.55771714  0.5099372  -0.16445906  0.40981495  0.00817035 -0.17157207
 -0.13763113  0.08677518 -0.19165513  0.1528153 ]
[ 0.03561465  0.08137982 -0.28197277 -0.33649734 -0.08927087  0.06463758
 -0.11336566  0.20327136  0.47061902  0.49955085  0.04155369  0.01159852
  0.03830821  0.18811412  0.24430025 -0.01035972]
[-0.04788843  0.40491247 -0.46618265  0.0454049  -0.15889047  0.2567841
  0.04018609  0.38444972  0.01145573 -0.19641578  0.01562776  0.16094065
  0.18490967  0.04509278 -0.20152159  0.3995359 ]
[-0.07531163 -0.04539977 -0.262807    0.24427806 -0.18196698  0.06086589
 -0.0680742  -0.211602    0.16065912  0.07072583  0.22600773 -0.12435862
  0.19166087 -0.11716529 -0.00309663  0.28158525]
[-0.0261777   0.04315705  0.18575475  0.15870239  0.15588336 -0.36555085
 -0.0031546  -0.34457073 -0.21923086  0.18915425  0.14247273 -0.02152657
 -0.116713   -0.0572569   0.06216743 -0.3327974 ]
[ 0.17632362 -0.27424294  0.10269783  0.24385752  0.08351115 -0.25013176
  0.36004356  0.2416137  -0.51532614 -0.07050991 -0.30111173 -0.21400198
  0.09572892 -0.16228993 -0.01529811 -0.00903029]
[-0.0039986   0.01436619 -0.0193134   0.2208635  -0.32534537 -0.10858549
 -0.10925485  0.5851632   0.2035063   0.05469864 -0.02358566 -0.3044469
 -0.02008777  0.359273    0.12367133  0.23924273]
[ 0.16403343  0.08758651  0.02338137 -0.08945528 -0.21270582  0.00706655
  0.08074359  0.5512403   0.15975979  0.24099945 -0.54659086  0.3098225
  0.06083816 -0.04206422  0.41525692  0.21713206]
[-0.04967411  0.04050707 -0.36089048  0.21364653 -0.584727    0.6025136
  0.32250166  0.04760848 -0.33302733  0.3741367   0.04140798 -0.34311116
 -0.13766228 -0.39654362  0.4955284   0.2119335 ]
[ 0.01388944 -0.3581871  -0.68293947 -0.20036809 -0.3446955  -0.11245026
 -0.35285613  0.20991522 -0.10675044  0.36527246 -0.25663692 -0.07158118
  0.140927   -0.04218787  0.22310807  0.24368227]
[-0.17828985 -0.12782824  0.04317313 -0.22518843  0.32116142  0.01664036
  0.20513783 -0.18954325 -0.17364569 -0.07527147  0.3160532  -0.22423205
  0.13315041 -0.15723178 -0.02285623  0.03796446]
[-0.49877697 -0.02157501 -0.66103995  0.11570211 -0.08079354  0.09477693
 -0.01921198 -0.2801551  -0.6672199  -0.18564628 -0.11251761 -0.23840454
  0.34746876 -0.27497357 -0.2175003   0.00648802]
[ 0.21432866  0.1631274  -0.05106107 -0.110705    0.2618901  -0.19116783
 -0.0407469   0.03794534 -0.01130258  0.15833078  0.0958778   0.37229526
  0.17054926 -0.00926928 -0.06690043 -0.0328983 ]
[ 0.12523623 -0.04015045  0.43631843  0.23488274  0.18489139 -0.38676012
  0.15276451  0.23770821 -0.00844833 -0.300057   -0.12457433  0.00430513
  0.08924393 -0.04046249 -0.363049   -0.02199884]
[ 0.00333993 -0.12479003 -0.2593636  -0.34761187 -0.687464    0.00858617
 -0.08741467 -0.31628716  0.07326849  0.00909343  0.16444582 -0.18920076
 -0.17806147  0.258882    0.15452959 -0.0709756 ]
[ 0.08185498  0.08446798  0.19610265  0.38970196 -0.26297465 -0.02822693
  0.03817316  0.09603453 -0.14745903  0.18463454  0.03386702  0.3350429
  0.31626114  0.09149782  0.05199159  0.34391826]
[ 0.03296627  0.05095102  0.3178137   0.34326982 -0.19776218  0.5007546
  0.5437528  -0.22781667  0.17976975  0.15939397  0.24434625  0.07101218
 -0.01506447 -0.24161154  0.15477055  0.0484013 ]
[-0.22932835 -0.1487928  -0.00303473  0.09824736 -0.39389688  0.29934227
  0.02420496 -0.03693718 -0.30519134 -0.02467559  0.10064131 -0.06357004
 -0.08740295 -0.13586362  0.14446639  0.27025667]
[-0.5509497  -0.1227675  -0.10476479  0.11390761 -0.03298868 -0.00283041
  0.17063904  0.3040327   0.05991446 -0.22511971 -0.37160093 -0.13351199
  0.02238363 -0.06687865 -0.17796193 -0.19499892]
[-0.07268972  0.22828248 -0.07132414  0.3127388  -0.10984822  0.13253899
  0.09072874  0.35647443 -0.22297223 -0.19186834  0.7362504   0.08840165
  0.03441068 -0.35585898 -0.14140992 -0.04649231]
[-0.03358226 -0.04545521 -0.00628609 -0.29254246 -0.05979459 -0.15190424
 -0.06332523 -0.21458828 -0.11559778  0.05675454  0.19701041  0.12556033
 -0.17247905 -0.03614638  0.09688094  0.27485618]
[ 0.2687002  -0.14034435  0.3395093  -0.34078175  0.223662   -0.08875039
 -0.05607146  0.04189721  0.17804934 -0.12712532  0.22642128  0.25776914
  0.18876797 -0.08759879 -0.34993988 -0.12111889]
[ 0.0763858  -0.17141978 -0.25699872 -0.54685915  0.04826624  0.3447649
  0.3101005  -0.25737667  0.41357255  0.04109971  0.25242534 -0.26060662
  0.08528177 -0.23196118 -0.00220694 -0.2134872 ]
[-0.03563948 -0.00574705  0.15137863 -0.20652959  0.14911403 -0.03731688
 -0.3450776   0.16428258 -0.17183776  0.5454275  -0.23147027  0.37866637
  0.19677703  0.21951865 -0.0046571   0.08266556]
[-0.08592595  0.04094438  0.07757284  0.14206252 -0.02912623  0.26392916
  0.01923743  0.10584498 -0.18841453  0.18010242 -0.21392205  0.15662561
 -0.00895994 -0.22833996  0.0769377   0.07850058]
[-0.45608157  0.09304643 -0.23137176  0.05183445 -0.12200481 -0.06868182
 -0.44189626 -0.03541011 -0.39136654  0.03680208  0.09238712 -0.12839301
 -0.06655955 -0.54461265  0.01776268  0.11142417]
[-0.02175437  0.26376852 -0.0588094   0.0870091  -0.12347217  0.09721434
  0.27219602  0.4044049  -0.06768674 -0.07837863  0.1938318   0.05190904
 -0.24334715 -0.3258365   0.14236616 -0.15807953]
[-0.28522807  0.4050617  -0.04257374 -0.02477426 -0.15386064  0.13681881
 -0.4252908   0.4178426  -0.11260364 -0.31541073  0.11422919  0.50657064
 -0.18269108 -0.22887655 -0.03529284  0.13834544]
[-0.22081372 -0.00337688  0.27468792 -0.15938413 -0.17886448  0.11588433
  0.3147105  -0.19460885 -0.23425134  0.2281771  -0.20220941 -0.18561639
 -0.04475462 -0.01357348  0.21997812  0.01408089]
[ 0.50492615 -0.721318   -0.05094894 -0.17642578 -0.27737746  0.15492219
 -0.07933705  0.50054634 -0.3033759  -0.22569074  0.24702714 -0.33637184
  0.22128403  0.1771371   0.14845036  0.10617311]
[-0.04031648 -0.30014837  0.17214654  0.3299873   0.24083638 -0.43945014
  0.43898514 -0.18467166  0.12228335  0.33835003 -0.35602352  0.2945034
 -0.29010776  0.01625716  0.28391483  0.08256599]
[ 0.33639434 -0.13846497  0.20692442  0.3652933  -0.16606428 -0.40145212
  0.06885506 -0.33332282  0.01150921 -0.16436914  0.09553871 -0.29616505
  0.48484474 -0.29231653 -0.18633495  0.08181012]
[ 0.20247437  0.24405895  0.28252745 -0.2891912  -0.36779648  0.11002357
 -0.44310462 -0.18755893 -0.28967935  0.01476383  0.17260094 -0.04993767
  0.46691972  0.1985598  -0.1559044  -0.13620673]
[-5.9927052e-01  3.8976008e-01 -1.4166971e-04  1.6696912e-01
 -3.7740614e-02  2.5737864e-01  1.8915895e-01 -8.6810911e-01
  2.9287750e-01  2.8082970e-01  2.1305972e-01  1.5456796e-01
 -4.6924177e-01 -1.7582491e-02  3.0606258e-01 -3.6405966e-01]
[-0.10454151 -0.17242275  0.1252512  -0.13670488 -0.09650567 -0.00169901
 -0.14524283 -0.00250819 -0.13186    -0.30822146  0.4671756  -0.20630628
 -0.08085733  0.14874287 -0.01754783  0.06123435]
[ 0.02732319  0.22389829 -0.13258679 -0.07496854  0.03437552  0.04448167
 -0.11934733  0.11803245  0.02490303 -0.24131039  0.06227153 -0.18869333
 -0.08000384  0.19686873 -0.00343515 -0.23055264]
[-0.11963964 -0.28107533 -0.2706193   0.04512011  0.05615006 -0.09438062
  0.0907784  -0.5730157   0.10889377 -0.06897761 -0.15102343  0.09649359
 -0.08981935 -0.22834182 -0.04220515  0.11171257]
[-0.20872313 -0.25412944  0.00891706  0.31838393 -0.38757825 -0.02676405
  0.02372419  0.37396294 -0.5731007  -0.42983687  0.27438083 -0.0805915
  0.07540233  0.14896618 -0.30557826  0.12269813]
[ 0.11215737 -0.20785868 -0.18622567 -0.19928944  0.1435446  -0.29385045
  0.37715733  0.07175181 -0.01253116  0.26994005 -0.5012782  -0.13022915
  0.12425761  0.31598482  0.17476146  0.0827062 ]
[ 0.00166577 -0.04743483 -0.25931787  0.18685238  0.06551144 -0.0425228
  0.24918982 -1.0707302   0.12051742 -0.31191033  0.15100002 -0.3512959
  0.29379198 -0.1544452   0.03122087  0.5856289 ]
[ 0.26116058  0.45011777  0.17681366 -0.2768147  -0.43632072  0.5675251
 -0.5005035   0.7260489  -0.44397184  0.2177076   0.21198739 -0.04382234
 -0.03310584 -0.29741484 -0.23141016 -0.45414   ]
[-0.21836963  0.20233348 -0.10669091 -0.10136396  0.53686976  0.09968161
 -0.15203394 -0.29274413  0.312849    0.28253028  0.02392427  0.25546658
  0.06856173  0.12259711  0.1256672  -0.07887654]
[-0.12089343  0.32401848 -0.26569572 -0.26791674  0.01985018 -0.2515222
 -0.2692926  -0.19582759  0.21855699 -0.31866506  0.20070033 -0.2396404
 -0.08242498 -0.2695986  -0.01973053 -0.44836462]
[-0.00165266  0.5633907  -0.53781253 -0.27832723  0.12203994  0.22198479
 -0.14610901 -0.5108787  -0.00391383 -0.08862644  0.12100218  0.17126043
 -0.07921213 -0.32117793  0.2809978  -0.18055336]
[-0.10628621 -0.10833368 -0.05159655  0.31529164  0.30861756 -0.28056425
  0.01520808  0.10111877  0.05344778  0.05389861 -0.20467357  0.05434042
 -0.14363532  0.13835417 -0.00484724 -0.1848027 ]
[ 0.09129078 -0.03607257  0.10830133  0.44510463  0.05376278 -0.598258
  0.29328606  0.15735728  0.18773556 -0.26375195 -0.21258952  0.3202518
  0.16656655 -0.30809912 -0.00455074 -0.27834034]
[ 0.16231106  0.22288793  0.23833705  0.10054227 -0.3285948  -0.09337871
  0.1955794   0.24784136  0.12454085  0.12909909 -0.04027038 -0.06648416
 -0.03474136  0.5389354   0.06028874  0.09876294]
[-0.25771067 -0.13231254 -0.47334015 -0.02880368 -0.0078793   0.49879137
  0.00476843 -0.1972063   0.7288279  -0.25246778 -0.14171971 -0.27107638
  0.2919638   0.09481504 -0.0063949   0.25928634]
[-0.1836469  -0.00325313  0.05369041 -0.40076527 -0.08269309  0.22255251
  0.01071201  0.0614434  -0.5475586   0.26363572  0.08300892 -0.01790347
  0.31373182 -0.6770987  -0.2276974  -0.39513987]
[ 0.14367202 -0.31767178  0.156046   -0.03077821  0.0150018   0.29378936
 -0.8633018  -0.2013935  -0.07109153 -0.02477566 -0.80638754  0.09677767
  0.33216602  0.21595751  0.15208264 -0.20479797]
[-0.0590378   0.25608224 -0.32754895 -0.30046058  0.22543934 -0.16833746
  0.22046348 -0.48748207  0.6155154   0.07919297  0.34279957 -0.06144286
 -0.11815732 -0.56538093  0.25124267 -0.40584615]
[-1.2056141  -0.24562079 -0.05899433  0.36875847  0.09365184  0.23271963
 -0.43343782 -0.6423507  -0.40866098 -0.07499151 -0.10949104 -0.08036258
 -0.16623344 -0.17569701  0.07762068  0.06186166]
[ 0.39778835  0.01828308  0.28202766  0.24844621  0.1014815  -0.12740968
  0.12783791  0.33484358  0.15500647 -0.22573872 -0.48596784  0.00722342
  0.06857797  0.2147005   0.08007595  0.16895923]
[ 0.37941605  0.11774427  0.34281576 -0.26847306 -0.13978538 -0.57506144
  0.14740844 -0.35130414  0.841058   -0.17032813 -0.07171495  0.38842392
  0.34288868  0.04046168 -0.16583169 -0.25040734]
[ 0.18987931  0.31748658 -0.7189381   0.0632957  -1.4832923   0.26982832
 -0.07875677 -0.04895296  0.0670614   0.08463754  0.32317108  0.07075053
 -0.01035325  0.09803527  0.18449494  0.02845186]
[ 0.04707087  0.5438419   0.28835675 -0.05594553  0.13598788 -0.18311703
 -0.10276905 -0.61186427  0.46683076 -0.03170028  0.32423696  0.4140786
  0.4434635   0.12162646  0.12719227  0.1682457 ]
[-0.16755992 -0.07127815  0.63957757 -0.06748749  0.22111236 -0.05569995
 -0.08278564  0.28520447 -0.55873185 -0.01558042 -0.06184727  0.20824233
  0.08379835 -0.17777048  0.08441648 -0.17798151]
[-0.07349004 -0.19140074  0.14346713 -0.10066033  0.00785171  0.43034708
 -0.85101515 -0.46451533 -0.2761987  -0.11963665 -0.01848952  0.48290697
  0.31887978  0.16858529 -0.1881712  -0.3017775 ]
[-0.30826813  0.27414498 -0.42626035 -0.24930416  0.29203507 -0.00245872
  0.11333901  0.19378112  0.41392377 -0.3081765   0.10584105 -0.01964819
  0.07833228  0.19040549 -0.2038986  -0.04982362]
[-0.8839671  -0.26774922  0.39429763  0.13837124  0.0206052   0.29362375
  0.04718594 -0.2220997  -0.13028607  0.1022927   0.34583905 -0.01098201
 -0.05967049 -0.19960849 -0.65560067 -0.1467502 ]
[ 0.36664277 -0.15845476  0.1323769  -0.20955236 -0.26696527  0.1121937
  0.0540508   0.02183603 -0.28422514 -0.13078704  0.16833489 -0.05420417
  0.04455332  0.24086355  0.05326692  0.1113975 ]
[ 0.12796527 -0.20303752 -0.15446343  0.14150845 -0.10263359 -0.25918797
  0.19255254 -0.08694704  0.5300287  -0.04513388  0.15596908 -0.08007112
  0.4296645   0.01359337 -0.19471358  0.04013063]
[-0.36167365  0.14695568 -0.1769261  -0.25248203 -0.42821315  0.53123456
  0.26580173 -0.18286045 -0.31031665  0.26664782  0.06389067  0.14644809
 -0.04673002 -0.846467    0.13761269 -0.27723226]
[-0.083846    0.34080863 -0.11747618 -0.27010646 -0.0305663  -0.17378913
 -0.347209   -0.07045874  0.24117392  0.01538083  0.02556367  0.32478654
  0.33334795  0.46884596  0.0115583  -0.06898301]
[-0.29348052  0.05907628  0.43813232  0.07352585  0.08501611 -0.29224688
 -0.2317343  -0.11893274 -0.27001607 -0.09574281 -0.24555868  0.26786768
 -0.08656082  0.09588998  0.16313006  0.04857143]
[ 0.04128792  0.07231657 -0.25892663 -0.24359754 -0.05461335 -0.00780692
 -1.0906649  -0.1520572  -0.31258935 -0.39197832  0.05402906  0.36368802
  0.0945264  -0.3916412  -0.11184269  0.02211539]
[-0.02932081  0.02827387  0.15226276  0.2890716  -0.22944424 -0.16404942
 -0.0680785   0.06657214  0.15302873  0.19239525 -0.24852404 -0.37283954
  0.08918226  0.1753872   0.18998341  0.0948773 ]
[-0.10221873 -0.18679017 -0.15082881  0.31442782  0.24352054 -0.47381365
 -0.1808324  -0.01490274  0.0843723   0.13263409 -0.11485635 -0.09031963
  0.25344574  0.06154286 -0.17737547  0.10610647]
[ 0.14801201 -0.3059311   0.22945656 -0.69888014 -0.11362395  0.4072597
 -0.41176498  0.13902548 -0.25231728  0.44542795 -0.03315876  0.00953909
  0.0751323  -0.07588664 -0.11480489 -0.26291785]
[-0.18457387  0.07356965  0.01159237  0.1670449   0.41866246  0.33588225
 -0.451527    0.14366257  0.21769847 -0.40767214 -0.022884   -0.1198379
 -0.1457665   0.76250446 -0.31406876 -0.18338   ]
[ 0.54256606 -0.8433603  -0.13997073 -0.07491389  0.13282397 -0.39766163
  0.43835998  0.0455006   0.43157017 -0.36338142  0.10139641  0.26559916
  0.56668895 -0.47110558  0.49188218  0.21029335]
[ 0.31178954  0.33283606 -0.20980616  0.4569006  -0.26982266 -0.21381868
 -0.08144889 -0.17494915  0.10263909 -0.125888    0.32991782 -0.4685491
 -0.13838506  0.25115106  0.4023778  -0.1685262 ]
[-0.4216877   0.2606656  -0.12982601  0.59333116 -0.21077028  0.23716924
 -0.09246837 -0.15970322  0.1107287   0.2868315  -0.38044596  0.48542827
 -0.24490091  0.08995601  0.15956022  0.28830895]
[-0.56573707 -0.11985196  0.1696704  -0.03059503 -0.22062968 -0.2132287
  0.2757121  -0.9149817  -0.63302344  0.38616684  0.29769608  0.0605818
 -0.18540041 -0.7325325   0.1085011  -0.1350514 ]
[ 0.14854184  0.03444118  0.28689286  0.13745241  0.36435285  0.44255367
 -0.38743493  0.16112737 -0.04045923  0.00291529 -0.1700507  -0.4070063
 -0.13946699  0.30407014 -0.1908705  -0.03939584]
[-0.33551848  0.41980076 -0.0404241   0.29917958  0.27712512  0.210734
  0.13481785 -0.25592598  0.19977957  0.143716   -0.22728479 -0.11094757
 -0.5529702   0.03091349 -0.26112926  0.04695441]
[ 0.41864458 -0.23579721 -0.3869499   0.13026452 -0.01211973 -0.64302313
  0.09903725  0.4464196  -0.04002469 -0.00626429  0.41230473 -0.11613002
  0.2801276  -0.4453996  -0.09612976 -0.2702575 ]
[-0.38837627  0.35540852  0.11818551  0.180587    0.2883017   0.21759166
  0.054866    0.36185494  0.09719875 -0.1722004  -0.24710143  0.00488901
 -0.3845719   0.1412906  -0.42543617 -0.33881947]
[ 0.16123919 -0.25976214  0.10658096 -0.29336733  0.1558137   0.06490583
  0.46540385  0.39344257  0.03243085 -0.15042354  0.0152969  -0.17679906
  0.50374377  0.42006594  0.31649038  0.4008554 ]
[ 0.1534095   0.78313625 -0.4001313  -0.03641474  0.13802135  0.5249526
  0.02684853  0.00113848 -0.20717625 -0.62353176  0.48545006 -0.25286263
  0.06053224  0.20018934 -0.02457155 -0.15701449]
[-0.3145745   0.32336292  0.01442097  0.39567062 -0.36715856  0.56575054
 -0.31358725  0.2591884  -0.0744882   0.23390256 -0.47826964  0.62481844
 -0.23005727 -0.10549015 -0.34891787 -0.2901306 ]
[-0.43902373 -0.02816582  0.1325667   0.06247446  0.580336   -0.09515233
  0.4449127  -0.5516663   0.58177435  0.02908899  0.44164622  0.03323399
  0.01137303 -0.00791802  0.12797731  0.5220232 ]
[ 0.3069377   0.1146316   0.40856975  0.02262239  0.21090807 -0.25388512
 -0.0281448  -0.5631418  -0.04677774  0.12623098 -0.36902335 -0.17405175
 -0.58649457 -0.42815062 -0.2837427  -0.5682982 ]
[-0.11103988 -0.22895855  0.513417    0.10216136  0.3051316   0.14110391
  0.15215644 -0.0739693  -0.25298187  0.13987562 -0.48611194  0.05335728
 -0.5157955   0.39994314  0.10695922 -0.20081702]
[-0.37083513  0.00082683 -0.25272167 -0.04248662 -0.05999299 -0.2269929
  0.02193493 -0.10395718  0.31630528 -0.07169326 -0.0519043   0.00670604
 -0.24405673  0.00906437 -0.02978816  0.20964976]
[-0.20283456  0.3050873   0.05155265  0.28028974 -0.11606787 -0.6120845
 -0.10962831  0.1817412   0.5247032  -0.37652856 -0.5163431  -0.42486843
 -0.45346612 -0.28702226  0.16537932  0.13861182]
[-0.20067145  0.33578557  0.37763447  0.24971104  0.13701141  0.20484649
  0.13455056  0.41774312  0.22167574 -0.7713496   0.17459892 -0.20615518
  0.28377196  0.27502984  0.06687346  0.365986  ]
[-0.2639897  -0.12927641 -0.32116792  0.0671777   0.13721989  0.2230915
 -0.42861506 -0.09176324 -0.0226282  -0.26703545  0.3245436   0.06094958
  0.12950103 -0.22166118 -0.3094586  -0.17451313]
[ 0.24063525  0.15447955  0.16930409 -0.53711724  0.31247705  0.31263298
 -0.1162107   0.45589656 -0.1410037   0.15870608  0.3508334   0.8795072
 -0.16004473 -0.32983524 -0.66296446 -0.32954764]
[-0.14614664 -0.337878   -0.26699683  0.2310719   0.2731095   0.14602596
 -0.27122396 -0.2906787   0.41107297  0.00474856 -0.17762797 -0.28119847
  0.4571966   0.39428264 -0.15903029  0.09304221]
[-0.02283342  0.4133111   0.31547987 -0.11429525  0.25222087  0.21941653
  0.24436124 -0.6640886   0.11507833  0.13643761  0.24437563 -0.23513539
 -0.58346045 -0.22001745 -0.1783162  -0.12069708]
[-0.3731216  -0.57521194  0.5209225   0.15543741  0.17189674  0.1468961
  0.1147411  -0.5337874  -0.01498611  0.34578872  0.07107303 -0.00667508
 -0.41868705  0.13337344  0.12936684 -0.05334294]
[-0.02026013  0.14281523  0.02572858 -0.08262862 -0.2524753   0.15264857
 -0.06347758 -0.2932143   0.52142495 -0.31238484 -0.40444753  0.2873606
  0.1284629   0.31282386  0.12652731  0.07526203]
[ 0.34593332  0.3372607  -0.1316924  -0.00891179 -0.5655265  -0.5453341
  0.2442325  -0.29941365  0.5821705  -0.20700486 -0.1540172  -0.4550689
 -0.253775   -0.09105956  0.6060885   0.65318197]
[ 0.1735278   0.51842135 -0.27236122  0.4769335  -0.40170047  0.23317404
 -0.48078293  0.22424848 -0.1366576  -0.5237709   0.18952969  0.1879739
  0.15648457 -0.00062307  0.26505774  0.19557428]
[ 0.19868611  0.26865783  0.22956087  0.28305948  0.4144262  -0.23601098
 -0.6907542  -0.20798412  0.43527904  0.21072705  0.02430468  0.25897118
 -0.46955687 -0.4529963   0.12978289 -0.01684148]
[ 0.2609814  -0.14599857  0.20287612 -1.0833949   0.6255316  -0.55527705
  0.15485497  0.5538084   0.20273967 -0.00999648  0.11124148  0.26491487
  0.11629523  0.24796627 -0.7064988  -0.27071068]
[-0.02647769 -0.11070194 -0.6809215   0.21762459  0.3501498   0.0851721
 -0.01469785 -0.27404073  0.15712012  0.22478235  0.13729109  0.02789538
  0.25044584  0.0813161  -0.30964828 -0.51616216]
[-0.03448467 -0.10590231 -0.07483583  0.11109969  0.35375035  0.02584196
  0.36064708  0.49068168 -0.13538997 -0.02350879  0.75385815 -1.1218357
 -1.0346743   0.72874427 -0.7459343  -0.03706916]
[ 0.18762043  0.2917783   0.15108387  0.23210101  0.4291333  -0.34989566
  0.20028338 -0.23511916  0.439882    0.53372514  0.22439535 -0.45927528
 -1.0430546   0.3430185  -0.28170124 -0.11205816]
[ 0.02941169 -0.12186836 -0.9143619  -0.17115638 -0.6165795   0.46011472
  0.0749274  -0.15275572 -0.37444067 -0.1062118  -0.20561782 -0.15019488
  0.44266528 -0.19963782  0.30604655 -0.03023255]
[ 0.14407526  0.02045959  0.00294935 -0.02573142 -0.20909601 -0.0098752
  0.17278853  0.03321242  0.1078735  -0.01412628  0.19618767 -0.32924727
  0.01920186 -0.09857326  0.18197542  0.5110231 ]
[-0.20315897  0.1829614  -0.2157864   0.39314958  0.209943    0.21183689
 -0.00514987 -0.20617917 -0.5070905   0.11996986 -0.49996272  0.44533563
 -0.08991551 -0.64885014  0.14039057 -0.03527123]
[ 0.30068034  0.32884482 -0.36744487  0.21935582  0.35874277 -0.15581307
  0.15833987  0.27805358  0.5328001  -0.14002648 -0.1875019  -0.08471824
 -0.28651512  0.13289897  0.16098371  0.41526097]
[ 0.27658463  0.0441899   0.21067822 -0.34924248  0.3581354  -0.6150366
 -0.12148282  0.12013088 -0.03123941 -0.27500048 -0.00492915  0.11640386
  0.22318055  0.04501658  0.09410357  0.11744116]
[ 0.3300144  -0.11517005 -0.17315085  0.49531633  0.29465345 -0.24246398
 -0.17466342  0.20154053  0.07067895  0.28766865 -0.03967651 -0.18180369
 -0.14898643 -0.22783864 -0.6451862  -0.4192499 ]
[ 0.01563461  0.1490371   0.2666093   0.40395385  0.10076483  0.13228756
 -0.01632566  0.04442275 -0.260855    0.13572529 -0.06102878 -0.5182618
 -0.32524315 -0.11149499 -0.2020072  -0.01947188]
[ 0.28122467  0.0689906  -0.11283295  0.40767992  0.09487988 -0.24386197
  0.2912318  -0.05670865  0.21705455  0.13467288  0.04255629 -1.2839068
 -0.6819035   0.31020498 -0.44765607  0.36496615]
[ 0.10580227 -0.31097025 -0.6762806  -0.73520243  0.00254189  0.08872512
 -0.13261117 -0.10677927 -0.56185925  0.42421666 -0.07062069  0.19443014
 -0.06021461 -0.403326   -0.15186386 -0.19419621]
[-0.19882424  0.50164104  0.24543293 -0.06617909  0.26010597  0.19694757
 -0.32437208  0.0848672   0.15130763 -0.11593597 -0.41602433  0.4270973
 -0.17008263  0.19730453 -0.19688237  0.6738979 ]
[ 0.26741716 -0.03524118 -0.8354467  -0.7184156   0.07080378 -0.19777203
 -0.22205262  0.05639703  0.1400534  -0.6366537   0.11778365 -0.11737259
  0.1545537   0.00456804 -0.3734646  -0.46440744]
[-0.47957185  0.5350935   0.15832326  0.44693714 -0.06267764  0.13316439
 -0.5882674   0.03447386  0.08331842 -0.19620404 -0.6183682   0.0402694
 -0.8755009   0.4904635   0.08792289  0.12382409]
[-0.04822345 -0.03215009 -0.10501419  0.32125893  0.12159294  0.10454302
 -0.46104822  0.31459257  0.01854877  0.13691272 -0.29541087  0.15454885
 -0.10001548 -0.38341874  0.33438113  0.35423684]
[ 0.30756506 -0.13999876  0.39241913 -0.39601773 -0.665085   -0.5075178
 -0.16877049  0.24836308 -0.6213878   0.090321    0.07718321 -0.42246157
  0.07796557 -0.80275226 -0.2578426  -0.24444605]
[ 0.30277073  0.44494227 -0.03658788  0.53144705  0.27783704  0.5562989
  0.02823775 -0.42189834  0.33723038  0.641913   -0.07219011  0.46056724
  0.33900627  0.4268023   0.34219575  0.5691665 ]
[-0.06619042 -0.05844435  0.02353408 -0.15422122 -0.24754624 -0.00893686
  0.23179267 -0.11053883 -0.18151608  0.13529006 -0.37265435  0.3197768
  0.03439356 -0.35069832  0.1605496   0.30861637]
[ 0.19159928 -0.10394874 -0.22756353 -0.35832408 -0.09415414 -0.84795547
  0.1625312   0.63875294  0.11423547 -0.39964575  0.2865795  -0.33065075
 -0.03826825 -0.11564828 -0.14490354 -1.5447818 ]
[-0.50068873  0.32141975 -0.05935457 -0.29258627  0.2686475  -0.0697511
  0.1999049   0.05561311 -0.26003104  0.15009457  0.19487765 -0.14379507
 -0.4177353  -0.63170254  0.00805516  0.2586268 ]
[ 0.09317107 -0.05270228  0.17421578 -0.06212737 -0.09421472  0.51374096
  0.11776272  0.10973359  0.03025742 -0.5414061   0.19110791 -0.29516843
  0.09708226  0.41298965 -0.42027375  0.0891142 ]
[-0.09298885  0.585817    0.10941043 -0.0194042  -0.22281452  0.04829537
  0.22972809 -0.29974294 -0.00341883 -0.01905262 -0.12544003 -0.06921786
 -0.3890808   0.827244   -0.66515595 -0.64861023]
[ 0.11838249 -0.17391145 -0.04561676  0.4640588  -0.28855506  0.20610225
 -0.7922808   0.01263021 -0.03860302 -0.1764553  -0.61624146  0.10584884
  0.31073755 -0.12069678 -0.26780647  0.179031  ]
[-0.22210605 -0.04580857  0.42650467 -0.2266556  -0.26618367  0.08280744
  0.59933037  0.04078313 -0.04399336  0.06659184  0.4981631  -0.59579086
  0.1189742   0.13710111 -0.01709102  0.06102913]
[ 0.9475908  -0.03540242  0.35597843 -0.0527291  -0.20976616 -0.07875612
  0.16566831  0.02111778 -0.13438126  0.24162936 -0.53809917  0.4536826
  0.14849274 -0.1176565   0.15071832  0.26124942]
[ 0.29034612 -0.8234499   0.44278726 -0.29327607 -0.3204945  -0.09696934
  0.06283041 -0.23090327 -0.69727784  0.08977091 -0.85187596  0.16343577
  0.33054033  0.19139299  0.03841499  0.06059857]
[-0.5298067   0.18631111 -0.8580105  -0.57303417 -0.01543788 -0.3320743
  0.41915083  0.19523634  0.134474   -0.82721865  0.18064289 -0.4628002
 -0.2664366  -0.07381744  0.11047129 -0.32692116]
[-0.3207332  -0.09005984 -0.46930134 -0.0163627  -0.4100774  -0.45946085
  0.14246401  0.1789704  -0.02437979  0.61111253 -0.14253964 -0.16862339
 -0.2126702  -0.37608847  0.5938009   0.2977626 ]
[-0.57444906  0.38949257  0.17650484  0.20746453  0.5771164   0.31311625
  0.10729407  0.43662432  0.16582617 -0.7429783   0.24956933 -0.79270065
  0.08703249  0.28268018 -0.72790754  0.3684521 ]
[ 0.02108429 -0.29992995 -0.20813678 -0.54844314  0.01199155 -0.5456534
 -0.1676885  -0.51569134 -0.22672163  0.55533344  0.1254533   0.81077564
  0.04385651  0.10149994 -0.14064443 -0.873859  ]
[ 0.56456727 -0.14279203 -0.10374718  0.09255309  0.07957083 -0.02751428
 -0.800686    0.22938599  0.17987727 -0.17640252  0.22702824  0.65396506
  0.32642174 -0.30382496 -0.33978668  0.5325505 ]
[ 0.13232921 -0.77025354  0.13724987  0.00395691  0.00350979  0.06183154
  0.23406988  0.04658142  0.05379499 -0.2404713  -0.2921666  -0.52400064
  0.19214402  0.0083308  -0.4111824  -0.00735601]
[ 0.31252497 -0.73769367  1.0542624  -0.4119433  -0.39205542  0.16624218
  0.2194121  -0.8573665  -0.7669882   0.32326442 -0.12965909  0.24255668
  0.7210087   0.12781215  0.31032938  0.56962615]
[ 0.30547318 -0.8031813   0.37517115 -0.41303787 -0.22885814 -0.36174363
  0.070185   -0.23500668 -0.7363416   0.24902913 -0.3109682   0.1810247
  0.5372054   0.34724435  0.13535507 -0.04411901]
[ 0.15905735 -0.02379834 -0.79137343 -0.00845619 -0.41180754 -0.02063021
 -0.7003921  -0.5145697  -0.06270295 -1.151367   -0.24423976 -0.3310701
  0.11192014 -0.27766123  0.5812188   0.07482257]
[-0.15361758 -0.01087621  0.42554927  0.38949957 -0.439307    0.11533114
  0.9874501   0.08049829 -0.09513128  0.41980803 -0.11594838  0.02229255
 -0.11308362 -0.52558845  0.759667    0.362185  ]
[-0.17687787  0.34284088 -0.1607609   0.13930604  0.40837675  0.18437469
 -0.8606043   0.37021697  0.08835647 -0.75322026  0.02179747 -0.22767112
  0.0168305  -0.08104999 -0.2559453  -0.00226435]
[ 0.3330129  -0.29342684 -0.24434209 -0.1730894   0.08026525 -0.23462358
  0.19391294  0.01792609 -0.00407372  0.41640872  0.02287087 -0.1036499
 -0.6895913  -0.4659644   0.24559991  0.06746074]
[ 0.55109286 -0.15056881 -0.20277229 -0.64747196  0.59386724 -0.54772294
 -0.09725904  0.4542896   0.43340462 -0.07091775  0.69077986  0.06689145
 -0.12018614  0.35205096 -0.6480147   0.5113463 ]
[ 0.3440899   0.4591784  -0.6024695  -0.27883378 -0.29420236 -0.00711653
  0.09240326  0.19814506  0.4699526   0.18390587  0.26860335 -0.01613237
 -0.1668706   0.18394345 -0.5803958  -0.01032971]
[ 0.14426479 -1.125402    0.04759771 -1.1432438  -0.25436375 -0.43086836
  0.36555132 -0.0697604  -1.0109097   0.07749667  0.3187373   0.02509446
 -0.10649908  0.25620332 -0.28970906 -0.0799069 ]
[ 0.03142295  0.08515179 -0.18744108 -0.2641257  -0.7622301  -0.861592
  0.03894741  0.07392599 -0.24747664 -0.06625921  0.15485893  0.33942494
 -0.12794523  0.3900592   0.13930626 -0.325895  ]
[-0.0389118  -0.2912638  -0.84583974  0.09913879 -0.34367302 -0.16870436
 -1.2290746  -0.38517013 -0.4644484  -0.661915   -0.27264956  0.21476947
  0.02615944 -0.5415063   0.4623238   0.3807695 ]
[-0.34981665 -0.02964238  0.18376969  0.11643346 -0.18420391  0.48068395
  0.44064412  0.0969087  -0.15590873  0.26513886 -0.05907509 -0.26773247
  0.06640627 -0.12060064  0.15159525  0.05963207]
[ 0.4440497   0.22185916  0.3104836   0.3685696   0.09010337 -0.00317913
 -0.59786564  0.00304291 -0.40530357  0.19722025 -0.45351708  0.56537014
  0.24552651 -0.6999604   0.26121262 -0.2234994 ]
[ 0.18802227 -0.8003829   0.4665095  -0.12112504  0.3673158   0.15316828
 -0.18987983 -0.00653425  0.16971543 -0.37969917 -0.40472713 -0.18204044
 -0.64225185 -0.02951709  0.29791299  0.17209111]
[ 0.5564681  -0.0294537  -0.30406874 -0.62753457  0.55148387 -0.31341827
  0.01984591  0.01454735  0.16878113  0.08336334  0.3301191  -0.4254039
 -0.03763979  0.48438615 -0.10978405  0.26986247]
[-0.15625812 -0.06314372  0.13674544  0.07014939  0.08528326 -0.27031198
 -0.08410313 -0.13083646  0.20000875  0.19375104 -0.06869381  0.41467488
 -0.41640934  0.16127962 -0.1343565   0.27699518]
[ 0.2201539  -0.10652819 -0.29196042 -0.3842197  -0.2756655  -0.2013271
  0.47185087 -0.20507346 -0.08560949  0.18584332 -0.21306713  0.1474189
 -0.17465565 -0.20896836  0.09800321 -0.04934258]
[-0.14976296  0.2032627  -0.32255548 -1.4066104  -0.67178255 -0.05554537
  0.4616105  -0.15447773  0.10067106 -0.12539491  0.30962986 -0.64434767
 -0.06261511  0.15880086 -0.14079101  0.22315799]
[ 0.30048737 -0.48596707 -0.6248935   0.07269991 -0.15024458  0.09293839
 -0.4887596  -0.5072255  -0.37251428  0.03452768 -0.36082885  0.45957294
  0.5765272  -0.01479178 -0.34575254  0.11116511]
[-0.41462132 -0.19077963  0.443029   -0.07954849  0.1921219  -0.07222904
 -0.09982793  0.7101529  -0.3423858   0.10137503  0.21295254  0.09232248
  0.21345457  0.15924579  0.1845957  -0.13686143]
[ 0.00825858  0.3167722  -0.3530283  -0.23169817  0.17133063  0.09574235
 -0.62360257 -0.14289023  0.13182485 -0.46845153 -0.15413973 -0.09018377
 -0.17804456 -0.12450859 -0.43127188 -0.1653027 ]
[-0.21539326  0.08765394  0.32584098  0.06985243  0.30456454  0.144795
 -0.4292421   0.14258751 -0.24437805 -0.21694271 -0.10689384 -0.12621988
  0.01618031 -0.13366668 -0.0287748   0.43426713]
[ 0.10200965 -0.22453384 -0.04108021 -0.48142105 -0.01519335 -0.31477165
 -0.00336353  0.45506755 -0.29412428  0.2695296   0.15994658 -0.16786626
  0.34790814 -0.5227107   0.31402496 -0.39811203]
[ 0.37426308  0.057418   -0.13426274 -0.71110904 -0.3296568  -0.42331827
 -0.18508364  0.1463256  -0.2845062  -0.15575577 -0.07325941 -0.07763602
 -0.36496285 -0.19534753  0.20024584 -0.42240572]
[-0.35949284 -0.1246981   0.6228398   0.15846606  0.5293261   0.11093137
  0.33358318  0.63257545 -0.26577815  0.12997341  0.3964867   0.6550313
  0.31153148 -0.03791733  0.52315956 -0.02413885]
[-0.02214316 -0.34717682 -0.2608181   0.03202213 -0.17258206 -0.08398482
 -0.05341734  0.35198164 -0.1535545  -0.1082793   0.45566526  0.05848996
  0.37579018 -0.4481752   0.22451828 -0.59440976]
[ 0.00802982  0.6307439   0.08740946 -0.07353592  0.03526194 -0.29797077
 -0.3676682   0.06275351 -0.01325485 -0.35758135 -0.24124676 -0.35604963
 -0.9468316   0.18682007 -1.1050131  -0.10137437]
[-1.0536829   0.01940665 -0.0491696  -0.34197283 -0.01012725 -0.24669051
 -0.30620503  0.08355146 -0.4560745   0.8859618   0.13785346  0.02591855
 -0.08276255 -0.27649578 -0.5176825  -0.2575111 ]
[-0.18669654  0.15227404 -0.16449055  0.0773132  -0.58640814  0.48067716
  0.05159464  0.2876483  -0.09298027  0.11321329  0.00945683  0.12378656
 -0.08427285  0.11396094 -0.25428817  0.00646585]
[ 0.29829833 -0.14834632  0.2552818   0.40535158 -0.18962453 -0.165626
 -0.01004892  0.48625478 -0.19469613 -0.0174699  -0.15469283 -0.18867092
 -0.22854668  0.25306174 -0.37146488  0.40535736]
[ 0.41899055  0.00528365 -0.34013185 -0.37702635 -0.21133958 -0.22510967
 -0.33892176 -0.07513954  0.03179476  0.13673812 -0.26036268 -0.10526009
  0.11358476 -0.34949344 -0.32141343 -0.374902  ]
[-0.13566884 -0.32945463  0.48925388 -0.01008958  0.09992128  0.23364688
  0.1774024  -0.21596609 -0.21142168  0.19221099 -0.07019148  0.2737346
  0.06148771  0.17192113  0.47338167  0.08557653]
[-0.21054    -0.07108016  0.30629662  0.56415296 -0.10711022 -0.06423596
 -0.19531178  0.3492347  -0.03551088  0.05361035 -0.13527541 -0.02564983
 -0.02854831 -0.48989803  0.6796353   0.10092359]
[ 0.2674691  -0.04241982 -0.34297046 -0.03946607  0.05022639 -0.11852341
  0.09269128 -0.07608129  0.11547081 -0.31340322 -0.12261043  0.03233123
 -0.07551511 -0.2592919   0.05882841 -0.7477328 ]
[-0.3872186   0.27552804 -0.26963946 -0.33734283  0.17732784 -0.4529574
  0.12792502 -0.07928316 -0.06089535 -0.42841455  0.4207884  -0.03136628
 -0.9053248   0.12050164 -0.28491327 -0.25036126]
[-0.49862435 -0.27364212  0.06217621  0.02512878  0.22339793 -0.19113855
 -0.18349975  0.08483738  0.16373801  0.6092882   0.11288844  0.54318815
 -0.35669357 -0.11275627  0.19669732 -0.5146348 ]
[-0.34710118  0.24642704 -0.18681091  0.13846414 -0.0519269   0.01243456
  0.35493198  0.274918    0.13146706 -0.2583077   0.40065157 -0.62796783
 -0.0836347   0.3259904  -0.96164674 -0.14123648]
[ 0.5581441  -0.00904129 -0.08313046  0.28863955 -0.24506678 -0.71112704
 -0.07155386 -0.18979827  0.20670845  0.5141024  -0.4240768  -0.13177088
  0.57178116  0.02149974 -0.16248244  0.24721055]
[ 0.11093161 -0.23577945 -0.01196134  0.10797813 -0.31652763 -0.19005905
 -0.30892217 -0.24948473  0.48211756 -0.19069946 -0.3785537  -0.13161035
  0.5084235  -0.03535689 -0.01342472  0.10652784]
[ 0.64934856 -0.58729076  0.18541352  0.05255042  0.12154299 -0.19691883
  0.20874314 -0.01825183 -0.7440954  -0.44687054 -0.16268773 -0.37114596
 -0.05579163  0.17015122  0.7287276  -0.02818407]
[-0.39835066 -0.668508    0.11278662  0.37826982 -0.12029532 -0.7171386
  0.00186366 -0.5416728  -0.38098708  0.2647462  -0.96383786 -0.12968552
  0.16947174 -0.32262316  0.60942745 -0.60179013]
[-0.03353284 -0.2532718  -0.4349141  -0.10555238  0.07245245 -0.48119795
  0.10378766 -0.2940179  -0.19648512 -0.5286915  -0.82068884 -0.15806308
  0.60429734  0.234415   -0.3174839  -0.79489046]
[-0.08223293 -0.17426136 -0.11988616 -0.20333123  0.40628526  0.1239711
 -0.5444283  -0.29366085 -0.32069045 -0.5392087   0.1440979  -0.5067114
 -0.36258036 -0.6280235  -0.12454587  0.14511523]
[-0.59789884 -0.0309729   0.20919631  0.47282195 -0.33474132  0.84883803
  0.14979222 -0.0430633   0.45135447  0.31104138 -0.26491797  0.18745756
 -0.21000181  0.05271928  0.07609848 -0.673191  ]
[ 0.12729956  0.27665362 -0.19495946  0.08446608  0.15776545  0.06290548
  0.05289613  0.2830865   0.1973291  -0.3653201   0.5620559  -0.04463338
 -0.16425368  0.08394607 -0.7642422   0.04165499]
[-0.1811495  -0.81892467  0.13036332  0.07971843  0.5845286  -0.37521002
 -0.08427966 -0.24515001  0.29592732  0.1564534  -0.09824388  0.4956994
  0.38602298 -0.30536452  0.13857044  0.45091859]
[ 0.2822477   0.10829963  0.03803021 -0.12168087  0.14992794  0.23432267
 -0.21696067  0.24947567  0.1721715  -0.5652825   0.06973099 -0.37732443
  0.25311345  0.0587547  -0.05662606  0.25248864]
[ 0.08392264  0.02716361 -0.12084673 -0.1372358  -0.05211058 -0.27993572
  0.1805147  -0.39225224  0.01734693 -0.17249496 -0.1816555  -0.3190225
 -0.11736242 -0.16564797 -0.1772286  -0.16481352]
[-0.44605017 -0.18861744 -0.7303914  -0.5038528  -0.5141932  -0.17198494
  0.10123251 -0.2889807   0.31974447 -0.4250261  -0.8215885   0.31035385
 -0.00670979  0.19059885  0.33080158 -0.52529854]
[-6.8728173e-01 -3.7008736e-01 -3.2953199e-02 -3.8951424e-01
 -6.8239295e-01 -3.1155756e-01 -1.3905023e-02  2.5266832e-01
 -4.9780816e-04 -7.4720216e-01 -6.6108203e-01 -3.8558148e-02
  2.7281845e-01  1.7673102e-01 -4.0051898e-01 -6.0162836e-01]
[-0.34563336 -0.3671565   0.09963002  0.13012634  0.37161857  0.17301853
 -0.70868886  0.05795292 -0.21163967 -0.11325327  0.0063247  -0.23371746
  0.00845511 -0.7607721  -0.3780426   0.12760907]
[-0.24062514  0.07276056 -0.18209778  0.28569973 -0.11864734  0.76639146
  0.08795725 -0.16030112  0.11017189  0.00941045  0.06148687 -0.10764413
 -0.02759624  0.36230537 -0.10501376 -0.18904617]
[ 0.2430782   0.515348    0.3203701  -0.10545685  0.02194201 -0.00877532
 -0.5916816   0.04219621 -0.39940044  0.7809328  -0.13181198  0.3352397
  0.08960087 -0.5605319   0.49175325 -0.2457996 ]
[-0.0101529  -0.23456398  0.2603654   0.09273546  0.15446573  0.31955618
  0.13079213  0.02347265  0.07964108 -0.19266966  0.06812609  0.08587028
 -0.17791389  0.0713836   0.21053325  0.09389818]
[ 0.2793165   0.17024352  0.10258073 -0.6320802   0.40587065  0.2768172
 -0.22236232  0.2590707   0.21191871  0.09346893  0.53544176 -0.64687026
 -0.0440702   0.5551275  -0.12618524  0.17730352]
[-0.7190006  -0.24886024  0.23416008 -0.2892602   0.2706797  -0.2536102
  0.05665716 -0.2899125  -0.12009466 -0.6725098  -0.41610506  0.21593249
 -0.28888366  0.06167559 -0.12192548  0.06829436]
[ 0.04798098  0.15753771 -0.33888185 -0.08431861 -0.64742166  0.01066456
 -0.09871988 -0.02406996  0.09322601 -0.07667083 -0.00788285 -0.24667048
  0.22897147  0.19727345  0.02149364 -0.17246337]
[-0.61602694 -0.8595058   0.03798368 -0.20015524 -0.6347253   0.07319661
 -0.4903397  -0.23404449 -0.2792472  -0.67052865 -0.5108532  -0.62488437
  0.3442562  -0.3346781  -0.16631792 -0.39467937]
[ 0.1522726  -0.06843466  0.29802504  0.12325238 -0.36194137  0.27815855
 -0.42490774 -0.2786184  -0.10333287 -0.09969578 -0.3815805  -0.04823575
  0.07300733 -0.22788176 -0.27283096 -0.14712933]
[-0.08840663  0.06066636  0.02411034  0.08907432  0.03875209 -0.06148494
  0.03573158  0.04425238 -0.00068826  0.03753798 -0.00565656 -0.00464343
  0.11543453  0.01206118 -0.05448601 -0.0967465 ]
layer 5 BatchNormalization
[1.3567369 1.9346334 1.5128812 1.9863092 1.7347031 1.7783934 1.5812988
 1.4011478 1.8241812 1.8744947 1.62343   1.7114483 1.4907968 1.431514
 1.7836001 1.7541089]
[-1.0429578  -0.2335687  -1.102272   -0.8562246  -0.95004857 -0.8224444
 -0.9071408  -0.5110659  -0.628282   -0.6808168  -1.1371379  -0.7086356
 -0.4653124  -0.7713419  -1.30918    -0.5193818 ]
[-2.5655766 -2.9388144 -1.7124921 -2.4625523 -3.057123  -2.5454588
 -2.1435192 -2.7505896 -2.5087686 -2.0967734 -3.2125442 -2.4868405
 -1.0139475 -2.4327502 -2.5575347 -2.2188478]
[ 8.400537 12.869147 10.506118 10.704232  8.906307 12.13732  11.485886
 11.55456   8.617477 12.870378  9.913688  8.205904  5.95991   9.94614
  9.966201  8.902976]
layer 6 Activation
relu
layer 7 MaxPooling2D
3 3
layer 8 Flatten
layer 9 Dense
64 10
[ 0.41271803  0.5973767   0.28371966  0.20784828  0.40148804 -0.44533923
 -0.2899181   0.30401653 -0.09596782 -0.39654955]
[-0.45262197  0.09939098 -0.03815235 -0.19973396  0.24742554 -0.42620593
 -0.45132795 -0.1318947  -0.11961687  0.00839622]
[-0.11800194 -0.14866462  0.39303115 -0.01534231 -0.0036274   0.477456
  0.13874559 -0.09331035  0.11992167 -0.06428199]
[ 0.5006927  -0.12147269 -0.7042171  -0.03022048  0.21681803  0.2249147
  0.22606511  0.51916    -0.50420403 -0.11099   ]
[-0.2982951   0.0714662   0.4494626   0.01644867  0.3856696  -0.13188389
 -0.33673984  0.263984   -0.48856568 -0.2287597 ]
[-0.7219045   0.07609867  0.45990643  0.7313427  -0.13049862  0.0836603
  0.03703884  0.5075446  -0.4003411  -0.7132581 ]
[ 0.21979383  0.5141543  -0.30062175 -0.53803974 -0.34283426 -0.3845679
  0.30002743 -0.0062365  -0.07203916 -0.13649005]
[ 0.04441251 -0.8724874  -0.10843542  0.195578   -0.32609153  0.38446727
  0.40447605 -0.09243797  0.08533046  0.35344425]
[-0.01222088 -0.30235434 -0.22636329  0.00142462  0.10196771 -0.09364069
 -0.07157392 -0.1352395   0.29120943  0.36976397]
[ 0.54835546 -0.49317458 -0.3996387  -0.11551837 -0.17617348 -0.5216673
  0.11628835  0.27494323  0.00681752  0.18119854]
[-0.07431794  0.37976983 -0.5358284   0.05474541 -0.1504276  -0.0330598
 -0.26803613 -0.22848134 -0.21051176  0.13223603]
[ 0.12396049 -0.46803713 -0.45874178 -0.7151416  -0.15202169  0.10227779
  0.35930154 -0.37849927  0.28038028  0.60849243]
[-0.19225949 -0.04673606  0.24853235  0.04603425  0.03000758  0.10134673
 -0.5086282  -0.24436976 -0.24078019 -0.24153014]
[-0.16063681 -0.11888035 -0.16388468 -0.43011975  0.19040135 -0.06214896
  0.06904637 -0.29854327  0.05199817 -0.03411745]
[-0.14622815 -0.33619463 -0.81067514  0.47071463 -0.2428364   0.29878914
 -0.14164816  0.12232322 -0.07072164  0.61447823]
[-0.04865822  0.55338115  0.27120745  0.2104414   0.025045   -0.221561
 -0.3677969   0.6944212  -0.16827804 -0.21955621]
[ 0.06476994  0.08567261  0.04105953 -0.13099095 -0.41509703 -0.00866734
 -0.2324574   0.8593132  -0.35865745 -0.5752853 ]
[-0.13065712 -0.88649607  0.19193977 -0.01145347  0.42990538 -0.3663914
  0.02213263 -0.6099686   0.32644314  0.2546491 ]
[ 0.31284216 -0.02046745 -0.07947617  0.59864795  0.281714   -1.0249078
 -1.1395175  -0.03231567  0.40799117 -0.13844945]
[-1.0627338  -0.37563717 -0.18418567 -0.46417654  0.5004883   0.92227256
  0.80107564 -0.17596027 -0.65098584 -0.5089544 ]
[ 0.29323557 -0.4612852  -0.12527263 -0.22190459 -0.52682334  0.51555383
  0.25582677 -0.39729276  0.06159351 -0.15363888]
[-0.3608535   0.08371897  0.6370881   0.15958223 -1.2680424   0.57677317
  0.0882163   0.67740417 -0.40592816 -0.5427765 ]
[-0.04851171  0.41408476  0.3285274  -0.01033231 -0.24239819 -0.11520351
 -0.11729987 -0.60834    -0.1835018  -0.05227076]
[ 0.22846976 -0.92030305 -0.12440981 -0.00478474 -0.16352998  0.37974322
 -0.02425823 -0.15326615  0.12426358  0.7337511 ]
[-0.6824788  -1.2080022   0.28151572  0.50307983 -0.7769461   0.47503898
  0.74140847 -0.5870159   0.24810572 -0.20150326]
[ 0.4320814   0.19520602 -0.65830284  0.18723391  0.48537478 -0.8065215
 -0.4426378   0.60121506 -0.15222281 -0.01276526]
[ 0.33973598  0.47014785 -0.26451567 -0.06043514  0.27605596 -0.04355438
 -0.46905985 -0.6907386  -0.47188506  0.33558452]
[-0.13130741  0.08996437  0.25308353 -0.00495177 -0.14207928  0.06344973
 -0.2915387   0.3590593  -0.13221651 -0.1382111 ]
[ 0.20008205  0.6433134  -0.39741015  0.36106133  0.38845485 -0.23190731
  0.1251862   0.1329524  -0.5060658  -0.53005016]
[-0.2628034   1.0531039  -0.23014863 -0.20519944  0.44567877 -0.62468505
 -0.5451171   0.53152806  0.09153858 -0.17015629]
[ 0.97791225  0.21472819 -0.01622062 -0.58958006 -0.49171788  0.16597572
  0.02820011 -0.18833245 -0.42895776  0.12605265]
[-0.04166887  0.08371206  0.03974628 -0.33391854 -0.9564865  -0.08442583
  0.34948477 -0.30935982  0.56824034  0.40122285]
[-0.13538124  0.49568418  0.22455458  0.47679806 -0.02476737 -0.24818419
 -0.02571448 -0.30169535 -0.6078404   0.23649178]
[-0.0488997   0.5473043   0.13198294 -0.23371193  0.29470143 -0.5445197
 -0.17113961  0.0077694  -0.04918991  0.10117488]
[-0.0201876   0.0022603   0.5240838  -0.61214006  0.61565036  0.00970031
 -0.20798235 -0.31068507  0.25447208 -0.00199378]
[ 0.23515543 -0.40920964 -0.40904114  0.14108692 -0.05433199  0.9260666
 -0.31811517 -0.15741512 -0.54292834  0.7613134 ]
[-0.43713576  0.6116148  -0.11852397  0.7211242   0.36082962 -0.46309894
 -0.48344487  0.36651087 -0.8395285  -0.47913507]
[-0.6816328   0.45823532  1.108614    0.06452478  0.32438368  0.08657414
 -0.1337496   0.20562641 -0.07948963 -0.4535517 ]
[ 0.3283294   1.2227563  -0.40973917 -1.0359207  -1.2297442  -0.96332437
  1.0928515   0.01824271  0.58722854 -1.0361372 ]
[-0.21371964 -0.25157338  0.01145415 -0.46641454  0.09847556  0.29762623
  0.3355071  -0.27377692  0.16850096  0.10146293]
[ 0.20035785 -0.01900426 -0.52156776 -0.09607642 -0.186046   -0.1452379
 -0.6800889  -0.5304819   0.05237322  0.5576508 ]
[ 0.47346428 -0.46329373 -0.6329655   0.03928593 -0.53242797 -0.9919386
  0.5722764   0.17683966  0.02693657 -0.25063244]
[ 0.10884748  0.7142278  -0.30678537  0.10850179 -0.2855773  -0.21179664
 -0.3524835   0.01386202 -0.3742951   0.0175258 ]
[ 0.1634396  -0.42830163 -0.08290841 -0.57832307  0.52557564  0.08913624
 -0.10997395  0.08442397  0.6743341   0.08569313]
[-0.6583985   0.2616978   0.6176102   0.29314467  0.23670235  0.07563447
 -0.5315574  -0.09001942 -0.40886766  0.31759667]
[-0.42121392 -0.31554806 -0.5480322  -0.17966837  0.07147253 -0.02130959
  0.16854085  0.66972905  0.26500425  0.047399  ]
[-0.40322113 -0.39020336 -0.28632066  1.0328069  -0.04945387  0.17551881
 -0.48981783  0.0223305  -0.86305225  0.46680865]
[ 0.12570637  0.22549893 -0.24873821 -0.14755295 -0.06907871 -0.23353116
  0.1981382   0.23418894  0.08627929 -0.56960845]
[-0.11313093  0.22535379 -0.1289122  -0.48598164 -0.99428546  0.02157478
  0.85922277 -0.43765873 -0.83981633  0.48362413]
[ 0.10603542 -0.73678464 -0.14647585  0.97370726  0.6837004  -0.3852573
  0.18787625 -1.0071493   0.22501649 -0.4476721 ]
[ 0.02561591 -0.19954999  0.21624029  0.78484416 -0.02060998 -1.2672656
 -1.6684496   0.16338137  0.6416947   0.53938806]
[-0.60679126  0.12677242 -0.2960694  -0.43704632  1.0226865   0.39205438
 -0.11860502 -0.2955675  -0.4544879  -0.43821165]
[ 1.371414   -0.27585405  0.32043022 -0.5490258  -0.8001958   0.36810687
  0.20147236 -0.21363506 -0.16401507 -0.13066167]
[-0.9633196   0.17578734  0.82644683 -1.3856336  -0.7474286   0.40429887
 -0.03114651  0.70623076 -0.29873204 -0.165164  ]
[ 0.5042556   0.55071837  0.1811288   0.11305851 -0.2746377  -0.26167697
 -0.3466142  -0.03793365 -0.39786008 -0.54981583]
[-0.4306139  -0.93439656 -0.5681959  -0.14357547  0.44090772  0.4016482
  0.3063686  -0.18887682  0.43882692  0.33947504]
[-0.6106954  -0.3623844   0.04331601  0.3366487  -1.2054467   0.6642574
  0.39953023 -0.05607817  0.14070849 -0.5015441 ]
[ 1.0295510e+00 -2.3790902e-02 -1.3483570e+00  7.3056626e-01
 -7.3388237e-01 -1.1294791e+00  1.2207400e-01 -1.0642807e-03
 -5.6259763e-01  1.0053520e-01]
[ 0.2617968   0.24298297 -0.9938197   0.16977516  0.27531588  0.20697881
 -1.2856563  -1.272984   -0.39001262  1.1783024 ]
[ 0.04915272  0.28380835  1.1963767  -0.5841417   0.06113375 -0.28565753
 -0.3691113   0.63843477 -0.6365559  -0.42405874]
[ 0.837879    0.19142254 -0.63801575  0.91627383 -0.67380124 -0.5774133
  0.49269754 -0.20053206 -0.30424923 -1.0919868 ]
[ 0.12437796 -0.11492426 -0.65583223 -0.11818098 -0.23449625 -0.54644483
 -0.11658783  0.6643234   0.20016517  0.9947973 ]
[ 0.44928586  0.13235588 -0.38447958 -0.7879428   0.11129975  0.13165818
 -0.40482453 -1.2699306  -0.44915798  1.4216611 ]
[-0.7884306   0.7069307  -0.19971853 -1.0558096  -0.76119745 -0.12118531
  0.24404514  0.60517925  0.64717644 -0.26700914]
[ 0.13390566  0.3624245   0.05719741 -0.52294     0.6159376   0.09209156
  0.00250818 -0.11176416  0.14486575 -0.5210612 ]
layer 10 Activation
softmax
